TTT -0.029817 0.165182 -0.218783 -0.015083 0.398283 -0.102258 0.126509 -0.144945 0.207446 0.400617 -0.136989 -0.000015 -0.081576 -0.293219 0.316936 0.188297 -0.293223 -0.073764 -0.131677 -0.380846 -0.555377 -0.117324 -0.266079 0.044392 0.077036 0.380749 -0.286098 -0.018595 -0.045769 -0.083050 0.152503 -0.300134 0.114814 0.389068 -0.139640 0.172117 0.334961 0.184787 0.232285 0.007869 -0.348010 0.042523 0.076491 0.044978 0.151679 0.288546 -0.134981 -0.298179 -0.056249 -0.011107 -0.293846 0.135925 0.068411 0.341807 -0.139784 -0.038068 0.142181 0.247483 0.229842 -0.040692 0.272315 -0.152674 0.145868 0.192280 -0.473538 0.243150 0.048643 0.121769 0.108645 -0.362543 -0.318405 0.388020 -0.057858 0.106724 0.185320 -0.022136 0.036563 0.047367 -0.363887 0.291495 -0.017926 0.072490 -0.000904 -0.375556 -0.139779 -0.005272 -0.018432 0.083541 0.005396 0.037183 0.205528 -0.113726 0.259952 0.000225 -0.283823 0.381433 0.182858 -0.318467 -0.225505 -0.490889 0.118846 0.316067 0.171133 -0.059000 -0.065880 0.024655 0.263112 -0.082686 -0.069553 0.146497 0.010252 0.047653 -0.355685 -0.246606 0.260431 -0.054636 0.274721 -0.008514 0.147791 -0.089278 0.099351 -0.253404 0.211518 -0.130760 -0.289056 -0.408646 -0.096526 -0.075138 0.198545 0.024098 -0.160676 -0.219120 -0.084801 -0.006024 0.125177 0.133025 0.372681 -0.007439 0.010458 -0.007601 -0.067308 0.102486 0.048821 0.178803 0.069243 0.229071 0.569660 0.049328 -0.086277 -0.160291 -0.063485 -0.135709 0.059527 0.029534 -0.080099 0.019494 -0.038110 -0.223670 0.226220 -0.048327 0.237868 -0.688925 -0.202030 0.229805 -0.044255 0.016764 0.117180 0.438316 0.284620 0.082656 0.273146 -0.021563 0.018022 -0.009988 0.358128 0.152151 0.243048 0.011077 0.515896 0.125874 -0.288636 -0.038297 0.388469 0.105041 -0.005588 -0.389531 -0.029626 -0.010143 0.417156 0.189021 0.098395 -0.005427 0.184992 0.107123 -0.203127 -0.081976 -0.161013 0.210427 0.218126 0.138338 0.139934 -0.057929 0.032926 0.230681 0.023651 -0.202279 -0.173244 0.053181 -0.025533 -0.123260 -0.022347 0.015809 -0.012171 -0.373130 0.045799 -0.042416 -0.045776 0.212710 -0.324103 -0.174241 0.012621 -0.126238 0.155812 0.325596 -0.282377 -0.083467 -0.157828 0.428613 0.274780 -0.109757 -0.005427 0.176658 -0.047383 0.163638 0.035306 0.286169 -0.085146 0.074104 0.040269 -0.066009 0.419904 0.073575 0.217406 0.065999 -0.000213 0.284046 0.236229 -0.320235 0.389440 0.085300 -0.164242 -0.014350 0.144538 -0.055302 0.133548 -0.419695 0.089179 0.148212 -0.298506 0.208323 0.056132 0.294822 0.044875 -0.112313 0.155981 0.458059 -0.013309 0.163859 0.196713 0.091565 -0.580168 -0.090634 0.260212 0.078012 0.544760 -0.233065 0.057483 -0.018131 -0.042771 -0.104466 -0.228349 -0.173392 0.410449 0.073573 -0.473125 0.123131 0.224373 0.165433 -0.013549 0.012950 0.022874 -0.043878 0.094409 -0.360828 -0.286304 -0.255085 -0.238329 -0.061161 -0.130174 0.175436
TTC 0.078388 0.260642 -0.175021 -0.038836 0.140755 -0.239602 -0.053473 0.258591 0.066423 -0.040887 0.082214 0.039855 -0.058918 -0.078080 0.211885 -0.068463 -0.132260 0.009739 -0.024472 -0.317734 -0.090888 0.092970 -0.169932 -0.051948 -0.053519 0.174936 -0.186009 -0.121646 -0.072906 -0.166020 0.019664 -0.114247 0.076395 0.246365 -0.041117 0.118438 0.176869 0.056502 -0.086078 0.117025 -0.004849 0.097935 0.009029 -0.229633 0.205001 0.274472 -0.073671 -0.170929 -0.144251 0.199637 -0.226036 0.202235 -0.017428 0.020389 0.041182 -0.230557 0.228435 0.052358 -0.009696 0.049017 -0.059572 -0.200428 -0.007241 0.144777 -0.163047 0.274542 0.276430 0.013246 0.047622 -0.045819 -0.265195 0.129145 -0.016912 0.036963 0.050186 -0.109543 -0.121347 0.061903 0.043544 0.014385 0.013007 -0.088941 -0.041936 -0.204050 -0.113460 -0.167655 -0.203285 0.029988 0.102614 0.117380 0.118263 -0.057293 0.127722 -0.037967 -0.180610 0.012603 -0.038637 -0.240841 -0.018483 -0.174421 -0.207592 -0.059472 0.205827 0.074211 0.110530 -0.016764 0.100720 -0.039309 -0.110898 -0.142831 0.082554 -0.020434 -0.282663 -0.046652 0.005901 0.047264 -0.098283 -0.000400 0.043445 -0.036725 -0.038980 -0.164162 0.023967 -0.092910 0.107991 -0.046016 -0.070112 0.051025 -0.012828 -0.017691 0.029093 -0.237190 0.080258 -0.227691 0.218886 0.009950 0.183298 -0.107604 0.189341 0.061816 0.129487 0.114092 -0.185093 -0.043761 0.225762 0.146787 0.249033 0.070001 -0.029772 -0.190472 -0.023790 0.083747 0.042567 0.041538 -0.161776 -0.152626 0.118478 -0.244227 0.121315 0.232358 -0.130573 -0.429847 -0.175080 0.182271 0.006124 -0.049927 -0.067819 0.140038 0.275767 0.079502 -0.216291 0.038297 -0.149988 0.002578 -0.021126 0.169190 0.196384 0.060544 0.083749 0.092045 -0.030743 0.198404 0.022609 0.035514 -0.067149 -0.068087 0.098256 -0.177653 0.327325 -0.264757 -0.010839 0.037895 0.071323 0.082111 -0.106609 -0.069888 -0.195241 0.335917 0.185617 -0.040797 -0.155134 0.083581 -0.212717 -0.113695 -0.160588 -0.246990 -0.004638 0.109151 -0.033005 -0.157320 0.047295 0.052664 -0.101293 -0.132311 -0.010297 0.080887 -0.103360 0.308937 0.103549 -0.276366 -0.132596 -0.090919 -0.096881 0.411428 -0.163474 0.074381 -0.135521 0.069532 0.061942 0.076843 -0.108890 0.259474 -0.018069 0.119188 -0.106014 0.132108 0.021966 -0.154460 0.069772 0.025591 0.059638 0.097212 0.071667 0.071565 -0.138849 -0.052311 0.281017 -0.195173 0.261908 0.034030 0.081658 0.152204 -0.000312 -0.073800 0.023231 -0.314835 0.295905 0.037582 -0.093034 -0.009073 0.141794 0.119695 0.014083 -0.082959 0.030158 0.108212 0.087967 -0.029985 0.055840 0.156717 -0.108185 0.059982 0.108186 -0.074388 0.169364 -0.118988 0.054312 -0.110865 0.152724 -0.191792 -0.154745 -0.121379 -0.052953 0.167453 -0.310392 0.076590 0.094084 0.178189 -0.036217 0.060555 0.058407 0.108095 0.184479 -0.263650 -0.081752 -0.129939 -0.172370 -0.213579 0.034949 0.027384
ATT 0.076834 0.160808 -0.139015 0.029876 0.019774 -0.001052 0.158482 -0.087125 -0.110768 0.091162 -0.103400 0.058788 -0.098576 -0.119317 0.072739 0.173622 -0.204295 -0.066405 -0.229670 -0.148590 0.003518 -0.276208 -0.216574 0.257399 0.028045 0.097249 -0.173916 -0.121208 0.167202 -0.303226 0.007675 -0.075287 0.097578 -0.019599 -0.069148 0.133634 0.105126 0.128342 0.102816 -0.156716 -0.266602 0.084031 0.097949 0.209738 0.169152 0.232161 -0.187948 -0.007186 0.144503 -0.002658 -0.160897 0.117243 -0.052338 0.177152 -0.195327 -0.107123 0.238256 0.104691 0.089978 -0.015203 0.032514 -0.118748 0.278056 0.149999 -0.091435 0.206328 0.018475 0.101087 0.281377 -0.101154 -0.075666 0.179023 -0.053843 -0.002270 0.109150 -0.049520 0.096640 -0.211102 -0.152212 0.166778 -0.107322 -0.007553 0.044035 -0.105438 -0.079621 -0.021944 -0.195894 -0.108598 -0.234104 0.025416 0.266579 -0.128492 0.044277 -0.207488 -0.023402 0.287151 0.192564 -0.201261 -0.337579 -0.153060 -0.112788 0.171846 0.085154 -0.036819 -0.196997 0.203132 0.017950 0.167840 -0.271505 -0.009294 -0.034434 -0.056613 -0.196434 -0.104511 0.093891 0.025234 0.231735 0.046982 0.128433 -0.024881 -0.000335 -0.060832 -0.045989 -0.276883 -0.106122 -0.224124 0.068881 0.066280 -0.011805 0.169279 -0.161588 -0.274959 -0.025827 0.041293 0.037326 0.008312 0.239459 0.029416 -0.123594 -0.004977 0.002849 -0.212392 0.023461 -0.089990 -0.135029 0.155883 0.021817 0.036088 -0.155319 -0.269604 -0.046347 -0.232808 0.015200 -0.013949 0.050275 0.202271 0.040236 -0.032189 -0.062521 0.012672 0.074668 -0.268627 0.067132 0.157484 0.087640 -0.091435 0.083556 0.312437 0.273443 -0.090072 0.163314 -0.074318 0.002215 -0.047303 0.222078 0.049164 0.275916 0.162055 0.310777 -0.046560 -0.084922 -0.143503 0.195568 0.069460 0.084739 -0.273306 -0.125236 0.016753 0.206484 0.135765 -0.081850 -0.049395 -0.012657 -0.026306 -0.055922 -0.138459 -0.152876 -0.002668 0.028390 -0.068667 0.001002 0.031607 0.025206 0.174706 -0.119681 -0.156040 -0.079873 0.006137 0.104934 -0.116394 0.040947 -0.069007 0.038375 -0.288035 0.087328 -0.082754 -0.021485 0.229222 -0.330084 -0.132000 0.044450 -0.103323 0.028326 0.228791 -0.128003 -0.006650 -0.082775 0.240758 0.189236 0.001046 0.070362 0.188325 -0.115057 0.120506 0.076645 0.277563 0.122493 0.075915 -0.139817 -0.100747 0.095509 0.309360 0.102843 0.083863 -0.014711 0.100557 0.031646 -0.096545 0.227337 0.202157 -0.135035 0.041445 -0.087279 -0.160189 0.112385 -0.257956 0.172279 -0.100139 -0.090527 -0.094030 -0.085645 0.230837 0.105429 -0.136176 0.110271 0.395865 -0.018598 0.020835 0.167290 0.031862 -0.347568 0.055766 0.080352 0.010566 0.290491 -0.069503 0.024268 -0.122124 0.089550 -0.180693 -0.227468 0.032595 0.159889 -0.030021 -0.405874 0.105875 0.038153 0.138718 -0.077111 -0.037092 -0.133082 -0.105866 0.125407 0.039776 -0.282851 -0.233555 -0.059889 -0.032207 -0.084204 0.224686
TCT 0.327666 0.122200 -0.007236 -0.122136 0.131223 0.078541 -0.062741 -0.040144 -0.128359 -0.131874 -0.002778 0.064746 0.024558 0.033206 0.116773 0.095302 -0.104283 -0.078069 -0.181666 -0.339296 0.028110 0.223774 0.115840 -0.065090 -0.083361 0.171116 -0.196915 -0.011629 0.139933 0.014501 0.007490 0.067114 0.017466 0.164832 0.022957 0.134987 0.065639 -0.109410 -0.033079 0.293460 0.306328 -0.032370 0.030667 -0.101167 -0.046304 0.315305 0.045865 -0.078527 -0.322883 0.316537 -0.335072 0.328971 0.297959 -0.225540 -0.026684 -0.018033 0.206329 0.298659 -0.028666 -0.054317 -0.050927 -0.150607 -0.248677 0.031005 -0.323550 -0.044851 0.135705 -0.227381 -0.107244 -0.185011 -0.015907 0.086211 -0.167454 -0.307329 0.005926 -0.156857 -0.095096 0.142373 0.142891 0.072675 0.162875 -0.015752 0.178059 -0.030757 -0.013844 -0.040946 -0.172635 0.047331 0.066170 0.335933 0.017097 0.076072 0.126312 0.006556 -0.308363 0.237256 -0.117817 -0.186805 0.082925 -0.158892 -0.251638 0.108156 -0.254438 0.042197 0.112265 -0.104107 0.088275 -0.248053 -0.003301 -0.228651 -0.055086 0.036905 -0.310288 0.029959 -0.377930 0.022554 0.084267 0.193547 0.105590 -0.026862 -0.064165 -0.113498 -0.001740 -0.285419 0.042659 -0.036454 0.127537 0.075588 0.080376 0.010325 0.108385 -0.121648 0.057838 -0.187323 0.114218 0.175402 -0.078177 0.123753 0.151417 0.192227 -0.057713 0.017273 -0.104344 0.065963 0.227551 -0.196775 0.350098 0.060640 0.213551 0.159931 0.058527 0.046545 -0.161405 -0.007694 -0.346126 -0.170228 0.054851 -0.266139 0.036565 0.276489 -0.067291 -0.216965 -0.091808 0.245743 -0.030092 -0.014389 0.044908 0.025546 0.079153 0.053944 -0.236149 0.095531 -0.117216 -0.055519 0.154992 0.053846 0.053362 -0.189376 0.027653 0.161761 0.078539 0.043319 0.019765 -0.146659 -0.049341 -0.129424 0.132023 0.005010 0.418543 -0.029553 -0.016872 -0.014174 0.080889 0.028098 -0.035252 0.009925 -0.001223 0.310384 -0.054851 0.208896 0.020072 0.056359 -0.129859 0.081425 0.011130 -0.157588 0.090443 0.060057 -0.205667 -0.008101 -0.135783 -0.247068 -0.259012 -0.064176 0.048199 -0.000476 0.025674 0.117960 -0.097949 -0.171859 -0.013565 -0.108185 -0.194957 0.131931 -0.060978 -0.078382 -0.075226 -0.032232 -0.285838 -0.322285 0.180236 0.017162 -0.003375 0.247824 0.207654 0.061986 -0.078896 -0.093777 0.218220 -0.122315 0.043323 -0.115724 -0.064542 0.004248 -0.281069 0.047789 0.200710 -0.194950 0.388851 0.298055 0.139939 0.120222 0.166045 -0.088459 -0.007080 -0.088637 0.099828 0.113133 0.092437 -0.020354 0.049745 0.021826 -0.350549 -0.027602 -0.030943 -0.077906 0.060087 0.095358 -0.019285 -0.020084 -0.152354 -0.036106 0.039802 -0.221523 0.122169 -0.015698 0.080187 -0.122606 0.087449 0.128374 -0.516429 0.085256 0.076371 0.129940 -0.259591 0.183457 -0.211575 -0.156983 0.135707 0.086641 -0.256345 0.280985 0.139478 -0.132063 0.046788 -0.242934 -0.242440 -0.133523 -0.059346 0.077895
AAA -0.018451 0.181594 -0.108354 -0.069463 0.001324 0.434129 -0.100483 -0.188959 0.005829 -0.201397 -0.171598 0.015881 -0.016527 -0.011052 0.149241 0.302958 -0.192394 -0.222275 -0.064748 0.133587 -0.210429 -0.214897 -0.187719 0.052393 -0.240440 0.012098 0.016816 0.120737 -0.198014 -0.096122 -0.029429 -0.095017 -0.011487 -0.195565 -0.106132 -0.178093 0.027702 0.044555 -0.350154 -0.349972 -0.051291 0.228414 0.290097 0.264510 0.039556 0.049863 -0.067286 0.106432 0.240332 -0.126453 -0.114318 -0.157245 0.099368 0.088138 -0.047252 0.051161 0.245915 0.088101 0.075196 0.402550 -0.012335 -0.063573 0.043022 -0.043362 -0.213248 -0.252808 -0.039217 -0.079935 0.056206 -0.006591 -0.178463 -0.169392 0.113955 -0.203928 0.345479 0.241974 0.090714 -0.361020 -0.148619 -0.006936 0.126874 0.099548 0.145095 -0.073404 -0.093948 -0.108263 -0.005470 -0.226267 -0.337380 -0.267612 0.078907 -0.252363 0.020352 0.004481 0.149878 0.029358 0.085469 -0.276881 -0.213334 -0.144705 -0.313492 0.277630 -0.179751 -0.023419 0.042794 0.111638 -0.108386 0.157950 0.078115 0.434979 -0.252932 -0.044425 -0.039756 -0.052788 0.329536 0.227658 -0.032648 0.129675 -0.185869 -0.353710 0.246987 -0.102178 0.200340 -0.237936 -0.084338 -0.374754 0.167847 0.138412 -0.150013 -0.267810 -0.048485 -0.256722 0.075377 0.121743 0.065396 -0.439836 -0.281464 -0.104015 -0.257011 0.033855 -0.113793 0.042777 0.101070 -0.205815 -0.408983 -0.274546 -0.374398 -0.114550 -0.341327 -0.027251 0.324724 -0.129510 -0.174370 0.376220 0.693995 0.393258 0.052195 0.005603 -0.239591 0.077200 0.248010 0.237817 0.194329 0.076988 0.018166 0.360067 0.026213 0.181823 -0.134252 -0.164794 0.155288 -0.115938 0.206999 0.266670 0.227413 -0.091070 0.008558 0.347527 0.154200 -0.244169 -0.255664 -0.086089 0.040143 -0.025199 -0.291718 -0.123646 -0.151149 0.327500 0.011278 -0.234935 0.164025 -0.059717 0.156002 -0.067209 0.196379 -0.371686 -0.203252 -0.467131 -0.139969 0.254462 0.396661 0.290148 0.400137 -0.042445 0.191019 -0.017346 0.176626 -0.362077 0.241791 -0.177850 0.358536 -0.064495 -0.028401 0.347505 0.092140 -0.031879 0.547743 0.201241 -0.133351 -0.282654 0.429430 0.055241 0.103167 -0.349890 0.114417 -0.115311 -0.107916 -0.000971 -0.084933 -0.044027 0.426732 -0.474404 -0.097114 0.161786 0.032083 0.061052 -0.185444 0.317882 0.081224 0.069035 -0.092866 -0.025247 0.164070 0.231066 -0.228505 0.000338 0.120283 0.169605 -0.143217 0.058861 -0.068437 -0.162769 -0.111904 -0.055428 -0.109774 0.122799 -0.001077 0.066583 0.110659 -0.175699 -0.035758 0.291629 -0.148421 -0.204119 -0.264608 0.246419 -0.048847 -0.288137 0.121646 0.204853 -0.006589 0.010059 -0.024793 0.560666 0.420625 -0.319458 0.112896 -0.086912 -0.081246 0.443867 -0.076007 -0.252396 0.254477 -0.117958 0.161474 0.091990 -0.093375 0.277223 0.295837 0.129311 -0.313700 0.195048 -0.096170 0.407562 0.064919 0.091230 -0.054379 -0.159266 -0.062855 0.037856
CTG 0.127631 -0.099380 -0.048316 -0.111382 0.137943 0.157489 -0.092822 -0.204102 0.096676 -0.003892 0.063300 -0.007456 0.125659 0.168810 0.005124 0.046140 0.097310 0.003835 0.032272 -0.016253 -0.011036 0.044635 0.278936 -0.089299 -0.158584 0.068266 0.056655 0.086922 -0.006796 0.136045 0.164451 0.048997 0.092972 -0.153909 0.081016 -0.049163 0.050533 -0.202503 0.025911 0.256005 0.338524 -0.199507 -0.146054 -0.121344 -0.276051 -0.033666 -0.053816 0.037595 -0.254761 0.138125 -0.110048 0.071222 0.080857 -0.215896 0.075812 0.198609 -0.105479 0.069727 -0.097694 -0.043169 -0.073240 0.171226 -0.357403 -0.025041 -0.040977 -0.079056 0.004423 -0.084368 -0.161538 -0.124340 -0.028299 0.023335 -0.115113 -0.118323 -0.115512 -0.105738 -0.135026 0.043756 0.030952 -0.030402 0.147532 0.191810 0.016068 -0.017055 -0.045560 -0.007297 0.100675 0.105401 0.145574 0.135284 0.119622 0.134393 -0.028468 0.002676 -0.377018 0.005551 -0.001074 0.158864 0.094314 -0.081237 0.062556 -0.068766 -0.225094 -0.008218 0.005684 -0.212310 0.124728 -0.304159 0.159843 -0.243252 -0.036815 0.026787 -0.086578 0.025019 -0.152890 -0.127195 0.114939 0.071810 0.040782 -0.045893 0.075946 0.057993 0.046547 0.152312 0.052520 0.030261 0.038252 -0.019909 0.039603 0.013445 0.161667 0.073781 0.164163 -0.076683 0.061438 0.175305 -0.081254 0.160360 0.070543 0.071125 -0.059840 -0.090527 -0.092687 0.171255 0.242424 -0.136082 0.212131 0.070964 0.186042 0.325262 -0.110266 0.041208 -0.084647 0.045909 -0.223054 -0.135879 -0.190318 0.056385 -0.063998 0.116107 0.013385 -0.016916 0.079551 0.252015 0.105482 -0.011843 0.163697 -0.166150 -0.018197 0.064257 -0.122638 0.165879 -0.020416 -0.043563 -0.116832 -0.122996 -0.170367 -0.216144 -0.149202 0.196405 0.017270 0.001904 0.062204 -0.095106 0.163320 -0.003644 0.083172 0.032975 0.149319 -0.080714 0.205954 0.001782 0.034434 -0.022810 -0.057071 0.069205 0.077793 0.101370 -0.056311 0.219627 0.034847 0.089936 -0.047986 0.236188 0.180271 0.059035 -0.011661 0.013483 -0.101344 0.115506 -0.268863 -0.209971 -0.199989 0.030198 -0.071789 -0.028033 0.034964 -0.042420 0.059446 0.093465 -0.140840 0.106491 -0.118445 -0.055421 0.023828 0.035561 0.138186 -0.206441 -0.238641 -0.417567 -0.000039 -0.077399 0.058902 -0.070972 0.073667 -0.060259 -0.115122 -0.151492 0.187337 -0.001319 0.013771 -0.193998 -0.104711 -0.054375 0.006764 0.106146 0.001291 0.063572 0.068021 0.047055 0.074754 -0.155572 -0.003350 0.025087 -0.029145 0.021293 -0.197254 0.038240 0.044072 -0.018929 0.005492 -0.128009 -0.279807 0.036316 -0.026086 -0.196962 0.001719 0.181850 -0.161903 -0.137878 0.199497 -0.097480 -0.072199 -0.268456 -0.012737 0.112129 -0.029203 -0.132442 0.052305 0.255431 -0.159626 -0.062590 0.067080 0.055380 -0.016790 0.150221 -0.234040 -0.196078 0.208066 0.012652 0.071072 0.218252 0.003631 0.025314 0.129847 -0.084516 0.008257 0.012670 -0.136620 -0.022725
CTT 0.218940 0.028813 -0.139703 0.008128 0.320724 0.093415 -0.022888 -0.101308 0.133828 0.248024 -0.034104 0.016785 0.066842 -0.077868 0.154936 0.097732 -0.132010 -0.021388 -0.122966 -0.201117 -0.225017 0.158923 0.043163 -0.085989 0.088384 0.290933 -0.208521 0.095627 0.011921 0.021231 0.098713 -0.104225 0.089916 0.174797 0.038641 0.112105 0.181798 -0.091055 0.183724 0.226772 0.064676 0.018283 0.028268 -0.014012 -0.001015 0.157764 -0.002318 -0.221651 -0.213094 0.170727 -0.330380 0.092568 0.097230 0.077245 -0.025385 0.080617 0.120781 0.227994 0.053059 0.000425 0.098766 -0.100502 -0.208111 -0.019423 -0.441801 -0.023045 0.061891 -0.132159 -0.096997 -0.206042 -0.146360 0.226147 -0.054777 -0.000588 -0.105524 -0.087590 -0.009385 0.138093 0.006372 0.156782 0.177933 0.107940 0.094694 -0.066253 -0.092014 0.027537 -0.014524 0.059876 0.138852 0.237889 0.079074 0.029555 0.178189 0.012027 -0.361804 0.195269 -0.009975 -0.191836 -0.007194 -0.245354 0.110650 0.196792 -0.050904 0.071949 -0.019510 -0.197070 0.223798 -0.287046 0.099647 -0.136284 -0.030549 0.155502 -0.219584 -0.032883 -0.052015 -0.062009 0.226171 0.082320 0.075652 -0.025030 0.004501 -0.195311 0.159852 -0.074263 -0.113978 -0.159589 -0.030753 -0.050120 0.154897 -0.109087 0.011565 -0.165848 0.052982 -0.041439 0.141312 0.186805 0.083162 0.082122 0.119626 0.050918 -0.047269 0.024407 -0.103887 0.083615 0.241600 0.068883 0.396545 0.078269 0.120393 0.177321 0.007942 0.010516 -0.057951 0.018212 -0.191539 -0.199797 -0.014090 -0.182096 0.122573 0.125604 0.098396 -0.311335 -0.102955 0.220923 0.063119 0.072392 0.101604 0.097259 0.083863 0.025154 -0.027624 0.113516 -0.113939 -0.065357 0.092841 0.000804 0.029421 -0.166326 0.271465 0.283045 -0.036727 0.100474 0.185258 -0.012164 -0.045499 -0.229105 0.130305 0.006058 0.329675 0.061807 0.105633 0.024517 0.242953 0.062897 -0.051511 -0.039889 -0.066435 0.134129 0.069136 0.170898 0.074586 0.051752 -0.078698 0.142479 0.069879 -0.090391 -0.141720 0.035122 -0.071572 -0.007902 -0.226694 -0.085283 -0.097645 -0.139287 -0.022841 -0.069253 0.012514 -0.043480 -0.128209 -0.087778 -0.146962 0.021157 -0.027559 0.263966 -0.076376 -0.099754 -0.019094 0.077210 -0.097654 -0.259697 0.132161 0.021397 0.029173 0.222429 0.040201 0.073707 -0.085418 -0.033527 0.130744 -0.118375 0.176095 -0.230493 -0.016453 -0.080514 0.014900 0.174506 0.206232 -0.171274 0.301744 0.163295 -0.031209 -0.026587 0.266269 -0.043041 0.118102 -0.157645 0.030075 0.081782 -0.088008 0.165660 0.058953 0.075097 -0.117191 0.071041 0.093249 0.164408 -0.018582 0.107172 0.063369 0.115406 -0.217949 -0.071986 0.052308 -0.193932 0.372874 -0.222817 -0.062548 -0.080504 0.005058 0.115085 -0.292974 0.029272 0.121773 0.079584 -0.275977 0.118613 -0.038474 -0.155422 0.069721 0.027447 -0.125641 0.115513 0.162449 -0.270129 -0.033361 -0.155526 -0.299294 -0.209440 -0.085477 0.036952
GGG -0.254602 0.129368 0.116343 0.004178 0.174269 0.105705 0.059982 -0.143928 -0.076718 0.204625 0.157963 -0.110043 0.145453 0.378567 -0.093122 -0.242362 0.042390 0.080510 0.315890 0.025112 0.332415 -0.120457 0.088916 -0.137687 -0.291721 -0.207031 0.209791 -0.155891 -0.151054 -0.138147 -0.211123 -0.084272 0.120250 -0.117209 -0.143854 -0.258059 -0.140058 0.125184 0.130718 0.087467 0.020529 -0.073470 0.107249 -0.307670 -0.326991 -0.254912 0.004804 0.328116 -0.399093 0.035844 0.127238 -0.130782 -0.286037 -0.254984 0.099104 -0.145103 -0.203055 -0.199842 -0.127100 -0.364214 -0.137396 0.075716 0.002256 0.122644 0.286023 0.079565 0.018900 0.212168 -0.144942 -0.008601 -0.231487 -0.455953 -0.099012 -0.020322 -0.123314 0.300117 -0.240274 -0.151579 0.037868 -0.194447 0.000729 0.172306 0.046578 -0.125082 -0.088728 -0.332329 0.363833 -0.170548 0.042472 -0.217251 -0.050667 0.173293 -0.046561 0.245881 0.027949 0.101440 0.144951 0.158480 -0.018159 -0.163671 0.151579 -0.315370 0.279160 -0.484148 0.072682 -0.182536 -0.227428 0.040449 -0.002269 0.287557 0.073470 0.322274 0.011247 -0.112266 -0.019797 0.076597 -0.309798 0.093391 -0.010192 0.116277 0.123642 0.121161 0.252374 0.326874 0.137748 -0.011203 0.050528 -0.153281 0.054113 0.225397 0.183848 0.428317 0.051239 -0.305897 -0.169240 0.019880 0.169023 0.217857 -0.093030 -0.118180 0.097886 -0.111532 -0.102551 0.102666 0.127346 0.288435 -0.129473 -0.059441 -0.245939 -0.147536 -0.348902 0.138215 0.148782 -0.160541 -0.053229 0.117109 0.041221 0.130702 -0.135920 -0.119135 -0.111964 0.019508 -0.186638 -0.161033 0.126498 0.142939 0.122094 -0.268977 0.096550 -0.091374 -0.108321 -0.072767 0.138708 -0.152459 -0.055925 0.105317 0.146527 -0.144224 -0.424341 -0.289014 0.134377 0.006773 -0.215990 -0.225612 0.174765 0.222364 -0.252656 -0.031381 -0.001092 -0.098967 -0.084009 0.066971 0.099429 0.177548 0.089708 0.170258 0.012735 -0.058046 0.160141 -0.136069 -0.042461 -0.110578 -0.207205 0.048183 -0.137076 0.155506 0.027789 0.004895 -0.365857 0.106437 -0.118976 0.110175 0.030530 -0.172594 0.019755 0.178594 -0.017302 0.112864 -0.193077 0.030064 -0.060030 -0.203793 -0.278042 0.104878 -0.108231 0.418993 -0.051036 -0.097448 0.432240 0.036954 -0.267374 0.399406 0.016051 -0.198134 -0.016233 -0.174669 -0.113367 -0.239649 -0.009319 0.136041 -0.035099 0.088533 0.192996 0.004443 0.024132 -0.140277 -0.258048 0.025827 0.001962 -0.344325 -0.172751 0.206577 -0.278576 0.075197 0.109678 0.053279 -0.363057 0.094632 0.188775 0.092903 0.088271 0.016562 0.119647 0.047553 0.095102 -0.264363 0.157297 0.231330 -0.313661 -0.277621 0.315822 0.025116 0.066059 0.097592 -0.310902 0.102032 0.071026 0.350519 -0.014409 0.004328 0.474094 -0.090956 -0.082065 -0.040173 0.003414 0.168289 0.423556 0.246232 -0.185079 0.021994 0.402100 -0.260654 -0.132662 -0.161244 -0.071708 -0.262244 0.281788 0.395799 -0.024443 0.050322
TGG -0.248809 -0.008037 -0.062330 -0.059400 0.153649 -0.004721 0.002368 -0.152312 0.046303 0.104277 0.060483 -0.084525 0.101052 0.321017 -0.029790 -0.170593 0.176837 -0.053726 0.182980 0.011661 0.091278 -0.136437 0.080704 -0.149972 -0.262799 -0.093377 0.235811 -0.036751 -0.015951 -0.055056 0.067388 -0.124317 0.126257 -0.178450 -0.071937 -0.181169 0.119187 0.041212 0.132958 0.185192 0.145823 -0.207848 -0.118976 -0.155980 -0.283734 -0.162369 -0.061795 0.157306 -0.169521 0.042208 0.065772 -0.015479 -0.081704 -0.218089 0.100384 -0.019137 -0.193187 -0.066903 -0.041369 -0.178019 -0.010205 0.222709 -0.040928 0.217907 0.153766 0.211315 -0.000541 0.165034 -0.011534 -0.105173 -0.055700 -0.136617 -0.146087 -0.066021 -0.110140 0.046208 -0.187148 -0.123264 -0.052387 -0.061738 0.007692 0.233455 -0.068490 -0.203427 -0.107922 -0.145994 0.353045 -0.069891 0.016262 -0.126244 0.211514 0.139588 -0.104893 0.050273 -0.208614 0.116526 0.224687 0.206827 -0.100179 -0.220653 0.077629 -0.255372 0.043974 -0.259138 -0.006191 -0.021444 0.033061 -0.162973 -0.016442 -0.024105 0.035948 0.034163 -0.041031 -0.049896 -0.107283 -0.047866 -0.007520 0.070558 0.160386 -0.016143 0.221573 0.197522 0.091168 0.204763 0.060556 -0.082011 0.073486 -0.028321 0.107550 0.177108 0.184123 0.227595 0.086236 -0.158082 -0.149153 0.061274 0.131153 0.230354 -0.146861 -0.019262 -0.053617 -0.171209 -0.038154 0.235295 0.127207 0.055668 0.034854 0.055594 0.001003 0.076789 -0.233980 0.020398 -0.009535 0.020793 -0.158646 0.006264 -0.235603 0.169000 -0.154661 -0.040560 0.022112 -0.026124 -0.000455 0.122382 0.082391 -0.008846 0.245536 -0.023931 0.193693 -0.036029 0.081227 0.060283 0.162486 -0.044927 -0.041946 -0.063432 -0.128115 -0.130446 -0.282750 -0.098524 -0.027941 -0.018355 -0.008721 -0.112668 0.307426 -0.030515 -0.069904 0.026813 0.079200 -0.013758 0.168821 0.074881 0.059018 0.020986 -0.039900 0.150647 0.020786 0.011826 0.087194 -0.009751 0.100536 -0.111503 -0.006345 0.197333 0.061759 0.028097 0.082872 0.021109 -0.215306 0.095610 -0.162603 -0.043873 -0.119518 -0.206266 -0.012265 -0.062499 -0.032535 0.147717 -0.111241 0.134680 -0.054033 -0.018047 -0.079223 -0.056388 -0.110974 0.251113 0.116187 -0.101276 0.211247 -0.222219 -0.304428 0.206109 0.020649 -0.238730 0.162471 0.066862 -0.132236 -0.256695 0.040150 0.099065 -0.007317 0.052998 0.209602 0.128874 0.072233 0.027562 -0.207018 0.040499 0.044906 -0.231790 -0.096181 -0.059846 -0.357176 0.078606 0.015636 0.034980 -0.276538 0.040469 0.061720 -0.077589 -0.006309 -0.006845 -0.082186 -0.082607 -0.071103 -0.139718 0.119354 0.242538 -0.255537 -0.330703 0.231771 -0.091291 0.060007 -0.028238 -0.105933 0.186799 0.065507 0.057735 0.047754 0.139804 0.108324 -0.158726 0.161231 -0.137836 -0.111081 0.209651 0.093043 0.176104 0.102549 -0.011958 0.317474 0.034622 -0.088180 -0.037035 -0.000207 -0.130344 0.154226 0.290922 -0.136101 0.132560
CCC -0.073108 -0.172411 0.470218 -0.115173 -0.047756 -0.146388 -0.196764 0.350977 0.310935 -0.046677 0.101953 0.200304 -0.138655 0.150303 0.067642 -0.047620 -0.079541 0.234362 0.207010 -0.093025 0.012068 0.216373 -0.205112 0.056679 0.059778 -0.095556 -0.335275 -0.232232 -0.238758 -0.090733 0.024298 -0.068991 0.197596 -0.173950 0.206865 0.180960 -0.174602 -0.097701 -0.236344 0.261783 -0.320305 -0.012459 0.093121 -0.296216 -0.085018 0.187582 -0.231363 -0.219876 0.042760 -0.261596 0.213302 -0.250456 -0.323713 0.106559 0.167880 -0.040728 -0.332393 -0.156449 -0.177937 -0.059754 -0.080155 0.068919 -0.365823 -0.411322 0.196079 -0.136750 0.316849 -0.053537 -0.267665 0.139668 -0.012410 -0.156347 0.263923 0.189270 -0.178375 -0.040623 0.036882 0.220718 0.107102 -0.049273 0.015921 0.180246 -0.124035 0.034620 0.067698 -0.050467 -0.035646 0.014008 0.224394 0.119770 -0.125030 -0.079886 0.195213 -0.221691 0.086813 -0.183712 -0.050354 0.134529 0.335553 0.109983 -0.118089 -0.292921 0.221975 0.075718 0.196168 -0.124903 0.038571 0.168498 0.278164 -0.066021 0.010576 0.019953 0.235199 0.051417 0.287405 -0.225408 -0.222876 -0.273072 -0.250622 -0.040387 0.118676 -0.104791 0.139304 0.307275 -0.078862 0.204728 -0.138217 -0.245003 -0.125734 0.044152 0.093446 0.021699 0.210954 -0.075931 -0.014441 0.118421 -0.037098 -0.217598 0.318170 -0.017360 0.299842 -0.101983 0.195151 -0.318091 0.193397 0.138146 0.250694 -0.111712 0.153898 -0.220492 0.304575 -0.036593 0.125889 -0.052516 0.337140 -0.309070 0.022610 0.061743 0.112284 -0.128810 -0.028052 -0.186868 -0.016967 -0.049284 0.127123 -0.263310 -0.423782 -0.367392 -0.222226 0.118071 -0.481346 0.080832 -0.278888 -0.163166 -0.422567 -0.081090 0.016729 0.225150 -0.155713 0.415689 -0.014598 0.073936 0.092553 -0.047000 -0.292186 0.238425 -0.061453 -0.439897 0.162968 -0.062395 -0.123630 -0.184370 -0.067712 0.215666 0.064463 0.083489 -0.052533 0.154944 0.261367 -0.008724 -0.129701 0.147936 -0.123435 0.104662 0.091337 0.201123 -0.205024 -0.036341 0.159659 0.333048 -0.023169 0.199826 0.179073 0.279966 0.201407 0.195405 0.013090 -0.196474 0.164983 0.051570 -0.149494 0.210350 0.024663 -0.060954 -0.158240 -0.111804 0.055778 -0.169710 -0.182339 0.156905 -0.133087 0.290618 0.053429 0.118635 -0.563287 -0.296014 -0.045466 -0.117961 0.089590 0.011978 0.029039 0.060598 -0.086522 0.038230 -0.057602 -0.095345 0.107972 0.258605 -0.221263 0.147062 -0.096089 -0.022575 0.104709 -0.201606 -0.109832 -0.184436 -0.043011 -0.094301 -0.043776 -0.069320 -0.242603 -0.389596 -0.195418 -0.065332 0.411816 -0.086385 -0.162333 0.177799 0.140942 0.340663 0.217732 0.084164 -0.022704 -0.117936 -0.086300 -0.027329 -0.067515 -0.091231 0.214612 -0.320628 0.493300 -0.013484 -0.191205 0.145415 -0.192786 0.029563 -0.025231 -0.089037 -0.185040 -0.131522 0.073428 -0.070216 0.083177 -0.237591 0.220097 -0.031045 -0.003462 -0.361521 0.059491 -0.012146
AAT 0.116182 0.170699 -0.084300 -0.016489 -0.098915 0.205814 -0.048128 0.010829 -0.065033 -0.278080 -0.099889 0.028367 -0.022011 0.076399 0.003719 0.161846 -0.088487 -0.175725 -0.092376 0.001650 0.081345 -0.227285 -0.178238 0.220170 -0.137800 -0.054637 -0.031005 -0.103038 0.012896 -0.304025 0.006014 0.026089 0.066771 -0.258658 -0.006716 -0.051412 -0.012485 0.054724 -0.182880 -0.197020 -0.058729 0.105801 0.178128 0.194981 0.128046 0.251713 -0.236928 0.087044 0.255567 0.016484 -0.116618 0.056596 -0.017001 0.024108 -0.098179 -0.032871 0.244258 0.096471 0.031387 0.273739 -0.110264 -0.010422 0.145837 0.037228 -0.067021 0.096244 0.050635 0.005496 0.250229 0.076817 -0.043673 -0.028169 0.030888 -0.191697 0.196447 0.049919 0.055669 -0.322499 -0.024809 -0.005424 -0.042635 0.058894 0.112704 -0.029550 -0.082721 -0.043122 -0.196642 -0.152769 -0.367812 -0.041084 0.247949 -0.176919 -0.031951 -0.192292 0.063611 0.176521 0.190832 -0.200965 -0.263387 -0.083882 -0.430109 0.085818 -0.076654 -0.060280 -0.096789 0.255375 -0.030553 0.189233 -0.190390 0.010966 -0.144478 -0.083400 -0.108639 0.001219 0.072419 0.146052 0.106090 0.116128 0.088149 -0.252010 0.167573 0.032843 -0.026366 -0.304703 -0.014085 -0.228318 0.156007 0.178788 -0.123850 0.004730 -0.031796 -0.316241 0.071100 0.021793 0.044736 -0.257232 -0.077289 0.024206 -0.152990 0.088257 -0.025847 -0.194992 0.030897 -0.265248 -0.272314 -0.121748 -0.241744 -0.006116 -0.221188 -0.140002 0.223052 -0.200939 -0.151089 0.293426 0.314943 0.212534 -0.003482 0.081195 -0.286287 0.068668 0.160340 0.101520 0.179770 0.214688 0.113034 -0.008438 0.035912 0.220897 0.223793 -0.223140 0.005157 -0.111816 0.035805 0.089084 0.138756 -0.151120 0.075749 0.309029 0.135980 -0.136531 -0.101147 -0.112389 0.064138 -0.011208 -0.027829 -0.175279 -0.174171 0.042685 0.178119 -0.142490 0.032969 -0.007683 -0.007831 -0.084880 0.058118 -0.238230 -0.184556 -0.167087 -0.126912 0.009968 0.127956 0.247560 0.132721 0.085946 0.017810 -0.121993 0.118746 -0.152421 0.179688 -0.177468 0.209100 -0.132684 0.000715 0.025986 0.142738 -0.049646 0.272467 0.319268 -0.184624 -0.259701 0.279039 -0.010381 0.004948 -0.082391 -0.030454 -0.069676 0.009469 0.009004 -0.057405 -0.040875 0.231950 -0.132654 -0.094941 0.104148 0.106062 0.187076 0.020512 0.085031 -0.024258 -0.017927 -0.138710 0.276536 0.214531 0.232097 -0.193246 -0.016389 0.042170 0.076059 -0.003807 0.189902 -0.071067 -0.061292 -0.292464 -0.144282 0.021881 -0.049010 0.154555 -0.061377 0.070856 -0.332091 -0.136328 0.099819 -0.108094 -0.199595 -0.054009 0.240729 -0.044496 -0.098274 0.139045 0.110187 -0.041722 0.080442 -0.047122 0.175549 0.226493 -0.139186 0.075091 -0.225608 0.078909 0.093397 -0.180439 -0.025906 0.150607 -0.076012 -0.245452 0.168694 -0.169815 0.196031 0.127261 0.016725 -0.289049 0.157114 0.018729 0.258159 -0.073238 -0.048152 -0.044903 -0.169024 -0.127569 0.166567
CAG -0.331366 -0.094065 0.079728 0.059375 -0.173018 -0.240530 0.164605 -0.124287 -0.078833 0.127771 -0.056154 0.241048 -0.072613 -0.171275 0.037371 -0.064364 0.025536 0.283392 0.021924 -0.011515 -0.080751 0.065180 0.022733 -0.230274 -0.015082 -0.019317 -0.053752 0.110220 -0.023356 0.244085 -0.247500 0.031207 -0.141751 0.087881 -0.164707 0.131657 0.085371 0.056878 -0.142375 -0.152503 -0.016719 -0.007460 -0.036979 0.067143 -0.174322 -0.121725 0.262585 -0.000359 -0.054476 -0.223253 0.045786 0.037784 0.109707 0.092699 -0.017201 -0.245926 -0.219473 -0.009253 0.070335 -0.019713 0.165147 -0.089175 0.018040 -0.024951 0.200857 -0.044289 0.013340 -0.068777 -0.110878 -0.085325 0.239395 0.018431 0.005242 0.036266 0.006412 0.052974 -0.057615 0.021976 -0.232662 0.177551 0.100698 -0.150135 -0.052824 0.033695 0.034833 -0.155968 0.183138 -0.128539 0.224199 0.016206 -0.002946 -0.047357 0.060438 -0.046653 0.147737 -0.278649 -0.087346 0.013528 0.037554 0.144895 0.097626 0.092728 0.031085 0.197709 0.111357 0.069662 -0.055417 -0.066891 0.125150 0.024305 -0.095302 -0.020078 -0.011655 0.024629 0.005430 0.001634 -0.094844 -0.001046 -0.111206 0.133944 -0.183309 -0.008885 -0.264006 -0.034130 0.154347 0.223605 -0.229564 -0.036989 -0.089850 0.014373 -0.059831 0.147347 0.106747 0.126072 -0.144258 0.023085 0.090263 -0.160308 -0.110511 -0.067128 -0.032709 0.094427 -0.053705 0.201206 -0.009502 -0.081214 -0.039954 -0.074943 0.023510 0.086369 -0.066958 0.161135 0.193528 -0.212766 0.107877 -0.065482 0.145764 0.048178 0.007346 0.036746 -0.268914 -0.134066 0.089600 -0.148401 -0.138792 0.183898 0.055267 -0.054851 -0.423414 0.084638 0.136837 0.082892 -0.035233 0.175089 -0.067204 0.086076 0.025306 0.071489 -0.134788 0.033558 0.042840 -0.176131 -0.066988 0.068721 -0.009367 0.242769 0.031753 0.161690 -0.206882 -0.079580 0.038560 0.001571 -0.112146 0.078617 0.041214 0.102820 -0.057533 0.055980 0.179293 0.338670 0.058424 -0.196822 0.166160 -0.086844 0.025012 0.055164 -0.058628 0.152156 -0.027968 0.209043 0.037871 0.068593 -0.096990 0.272501 -0.111238 0.012306 -0.099840 -0.199436 0.216636 0.110689 -0.093061 -0.125311 -0.047073 -0.018275 0.138875 -0.031767 -0.336660 0.129984 -0.075822 0.271948 -0.064407 0.155458 0.083974 -0.086623 -0.170746 -0.074404 0.026506 0.089622 -0.091859 -0.087128 -0.107743 -0.080676 -0.327732 0.002390 -0.099167 -0.080937 -0.064081 0.077074 0.046100 -0.039179 0.083216 0.023228 -0.078178 0.015160 -0.197369 0.059436 0.110945 0.017230 0.023769 -0.006023 -0.064151 0.272646 0.147728 0.165574 -0.113812 -0.012204 -0.080160 -0.096760 0.063605 -0.116217 0.077825 -0.038658 0.098960 0.094245 -0.078537 0.248050 0.023013 0.066975 0.003204 -0.039345 -0.083488 0.125366 -0.076194 -0.004747 0.238736 -0.308873 0.082786 -0.047864 -0.034908 -0.052948 0.086994 -0.333637 -0.027959 -0.069402 0.081411 0.127476 0.031477 0.155618 0.182162 0.029342
TCC 0.037405 0.023258 0.276622 -0.103859 -0.057868 -0.207627 -0.154220 0.353590 0.059220 -0.204568 0.056211 0.200567 -0.111644 0.102568 0.096991 -0.114258 -0.065271 0.109861 0.086288 -0.313814 0.055338 0.277238 -0.148028 -0.027204 -0.023519 -0.031303 -0.301316 -0.224234 -0.075085 -0.107217 -0.063469 -0.014884 0.075621 0.023057 0.062200 0.189470 -0.039957 -0.027859 -0.269345 0.248700 -0.030266 -0.023052 0.065130 -0.249391 -0.008435 0.365161 -0.118929 -0.208607 -0.095580 0.010493 -0.029119 0.118469 -0.023040 -0.055480 0.103385 -0.227427 -0.052830 0.044865 -0.101083 0.025420 -0.106377 -0.103064 -0.242227 -0.160748 0.006190 0.069417 0.356215 -0.109740 -0.145172 0.034788 0.049129 -0.042465 0.083278 -0.075939 -0.055373 -0.113163 -0.102131 0.161479 0.108782 0.005512 0.063770 -0.031392 -0.015639 -0.007511 0.011328 -0.114460 -0.148881 -0.028503 0.155598 0.263167 -0.026712 -0.062720 0.201888 -0.162480 -0.018455 -0.009321 -0.054346 -0.073064 0.214013 0.007141 -0.390282 -0.170466 0.081706 0.091527 0.226248 0.031642 0.039314 0.021680 0.045490 -0.217844 -0.015582 -0.031648 -0.097715 0.071696 -0.068645 -0.040410 -0.193998 -0.043271 -0.048295 -0.086096 0.006295 -0.093440 -0.035058 -0.070384 0.083382 0.167930 -0.052104 -0.022490 -0.070993 0.062932 0.133944 -0.094772 0.180537 -0.197466 0.057263 0.066457 -0.010441 -0.146141 0.245223 0.107252 0.206786 -0.025633 0.032643 -0.187243 0.194632 -0.002645 0.278941 -0.039605 0.172071 -0.126380 0.250446 0.057239 0.009442 -0.012595 0.020703 -0.318250 0.098410 -0.104349 0.022991 0.129727 -0.148268 -0.296113 -0.098657 0.122190 0.010917 -0.204600 -0.241018 -0.152682 -0.025515 0.065559 -0.456877 0.069880 -0.285987 -0.049131 -0.189525 0.017023 0.076002 0.145053 -0.116528 0.276448 0.077688 0.047299 -0.010563 -0.075789 -0.193417 0.097705 0.023422 -0.327335 0.340528 -0.201319 -0.131225 -0.060898 -0.045524 0.153691 0.030365 0.048450 -0.127933 0.377614 0.178599 0.063556 -0.129302 0.091577 -0.178413 -0.003403 -0.000019 -0.041876 -0.010250 0.098654 -0.026370 0.159858 0.033195 0.023285 -0.047390 0.149473 0.158921 0.109662 -0.038428 0.081835 0.124262 -0.159312 -0.042611 -0.032517 -0.123449 0.097436 -0.133596 -0.100704 -0.104332 -0.092015 -0.246370 0.096413 -0.064917 0.306253 0.042308 0.156097 -0.241997 -0.049462 -0.010636 -0.168878 0.130475 -0.062597 -0.047380 0.083776 -0.017998 0.101160 -0.272330 -0.127772 0.195922 0.029312 0.103104 0.211583 0.060360 0.121645 -0.015275 -0.179522 -0.126084 -0.185715 0.229289 0.029793 0.044948 -0.172730 -0.147386 -0.152405 -0.239757 -0.071838 0.198382 -0.094795 -0.063859 0.103670 0.139056 0.206895 0.109254 0.080656 0.040042 -0.126948 -0.009708 0.021200 0.055680 -0.158719 0.250212 -0.221304 -0.031537 0.061141 -0.129200 0.167669 -0.325128 0.059945 -0.083117 -0.004447 -0.058523 -0.054160 -0.083251 0.086421 0.112524 -0.280642 0.147307 -0.106274 -0.136852 -0.306460 0.068317 0.073545
TGT -0.102451 -0.087730 0.091184 -0.233588 0.048508 -0.101410 -0.008317 -0.094746 0.092643 -0.167025 -0.015844 -0.069559 -0.075844 0.007793 0.074581 0.110992 0.155912 -0.198654 -0.033902 -0.198144 -0.317497 -0.082669 0.001735 0.065044 -0.125501 0.063090 0.098566 -0.061688 0.177766 0.292207 0.350719 0.043531 -0.118568 0.137138 -0.052565 -0.031019 0.136111 0.068833 0.001196 0.155241 0.154229 -0.311316 -0.143441 -0.056139 -0.124030 0.113162 -0.183642 -0.073029 0.062468 0.042018 0.128013 0.274544 0.322295 -0.137471 0.033714 0.165920 -0.057457 0.123260 0.108746 -0.010177 0.095166 0.153750 -0.031741 0.198222 -0.007079 0.191365 -0.098951 0.149523 0.027165 -0.193639 0.078257 0.237939 -0.213226 -0.212451 0.267528 -0.182202 0.045027 0.074689 -0.302278 0.045992 -0.144994 0.020161 -0.068307 -0.296659 0.069058 0.234620 -0.031894 0.202542 -0.040069 -0.073087 0.008765 -0.030485 -0.032852 0.052012 -0.211048 0.257790 0.129158 0.169938 0.016810 -0.283307 -0.183081 -0.006907 -0.205313 -0.149341 0.060257 0.206876 0.190135 -0.070459 -0.065445 -0.049793 0.072628 -0.406674 -0.199554 -0.181382 -0.174913 -0.068862 0.118051 -0.080098 0.111228 -0.149945 0.204066 0.121020 -0.006171 -0.029578 -0.126969 -0.118993 0.149183 0.066922 0.165286 0.223063 0.057035 0.099813 -0.181041 -0.058149 -0.021938 0.093937 -0.049377 0.134812 0.010359 0.127237 -0.171711 0.007158 0.266349 0.351411 -0.019465 -0.280410 0.453887 -0.023618 0.160973 0.060975 0.000052 -0.122489 -0.088494 0.101605 -0.285476 0.077987 -0.257000 -0.027707 0.078458 -0.057119 0.281769 -0.151652 0.027823 0.243778 -0.276824 -0.294508 0.027375 0.166653 0.114074 0.231690 0.166276 -0.038422 0.096114 0.064618 0.258470 0.056495 -0.165337 -0.099297 -0.065625 0.059839 -0.250737 -0.113762 0.286007 -0.029915 0.127331 -0.235340 0.020412 0.060332 0.196697 0.216281 0.129575 -0.033994 -0.249870 -0.136444 -0.210848 0.124282 0.189041 0.312737 -0.144720 0.083827 0.063363 -0.085303 0.199272 0.333458 0.268297 -0.132082 0.097301 0.053023 -0.055710 0.033949 0.080746 -0.140219 -0.204997 -0.296086 0.043723 -0.094027 -0.026904 0.223617 -0.139838 0.205943 0.221844 -0.073268 0.074875 -0.373793 -0.200721 -0.064795 0.150920 0.057841 -0.124284 -0.346332 -0.127121 -0.152576 -0.127746 -0.186963 0.309542 0.164110 -0.089675 0.012069 0.182829 0.088287 0.224787 0.121728 0.131158 0.182021 -0.082892 0.209647 0.020844 -0.066279 0.047703 0.036238 0.058771 -0.165709 -0.125936 0.072357 -0.171989 -0.033406 -0.072931 0.133109 -0.125712 -0.141211 -0.017075 -0.109741 -0.335824 -0.289098 -0.049858 -0.165557 0.101444 0.294349 -0.069748 -0.290626 -0.171961 -0.178670 0.213717 -0.007423 -0.041898 0.263845 0.174510 -0.025684 -0.013109 0.080421 -0.203374 -0.216046 0.471330 0.017504 -0.093836 0.152393 -0.199765 0.057153 0.266089 0.069788 0.070033 0.343414 -0.176430 0.016392 0.042001 -0.070039 0.087231 0.195284 -0.173093 0.109160
TTG -0.068172 -0.005448 -0.114423 -0.114553 0.259268 -0.008143 0.065971 -0.317488 0.103437 0.220492 -0.056249 -0.072888 -0.038289 -0.063167 0.174987 0.253975 -0.087808 -0.085878 -0.021061 -0.122473 -0.299122 -0.324006 -0.015425 0.116656 -0.149318 0.167880 0.001687 0.021086 -0.020675 0.044767 0.265458 -0.167413 0.163222 0.021135 -0.065471 0.026245 0.169370 -0.004824 0.167117 0.035230 -0.105402 -0.162821 -0.151947 -0.016221 -0.080039 0.079031 -0.160554 -0.015384 -0.038749 -0.046407 -0.008218 0.093897 -0.017692 0.071037 -0.051014 0.158433 -0.042211 0.077765 0.082511 -0.118821 0.087864 0.146082 0.006291 0.140188 -0.068632 0.117774 -0.079152 0.182855 0.063585 -0.328312 -0.182297 0.165517 -0.088051 0.038987 0.158551 -0.091480 -0.031973 -0.069549 -0.302721 0.119460 -0.093338 0.219176 -0.083528 -0.309661 -0.076187 -0.017346 0.122465 0.191952 -0.051522 -0.103663 0.233689 0.022738 0.060497 -0.048314 -0.276623 0.216340 0.135557 0.117413 -0.111903 -0.314118 0.193517 0.049327 -0.094725 -0.140916 -0.059612 -0.076551 0.146195 -0.108769 -0.003107 0.040529 0.005127 -0.082367 -0.172572 -0.188205 0.185368 -0.191822 0.269751 -0.009628 0.122928 -0.092069 0.150125 0.012343 0.129436 0.097379 -0.251324 -0.218649 0.014907 -0.112804 0.074339 0.185268 -0.018668 -0.021192 -0.005219 0.037789 0.034503 0.184747 0.187983 0.136770 -0.054619 0.031183 -0.078096 -0.059916 0.076037 0.280736 0.046011 0.013532 0.389085 0.091936 0.045909 0.001517 -0.206667 -0.224544 0.012485 0.001848 -0.170306 0.113108 -0.252103 0.019381 0.092972 -0.106129 0.198886 -0.325183 0.045996 0.212497 0.091776 -0.090881 0.181814 0.182561 0.181345 0.149751 0.210315 0.025804 0.151903 -0.051328 0.131561 0.004076 0.074290 -0.089427 0.131787 0.034685 -0.196420 -0.150527 0.246787 0.036298 0.249956 -0.216835 -0.058674 0.019895 0.166311 0.192092 0.142553 -0.094506 -0.018527 0.062526 -0.216470 0.037019 -0.005742 0.128572 0.063150 0.154929 0.135968 -0.045341 0.065693 0.317251 0.108987 -0.002292 -0.065762 -0.015002 -0.056258 0.004029 -0.110180 -0.149837 -0.051416 -0.252924 0.000056 -0.064549 -0.031839 0.176957 -0.190141 0.059475 0.002902 0.057848 0.107702 -0.052883 -0.146591 0.036460 0.046847 0.195276 0.170397 -0.323116 -0.090125 0.014518 -0.037232 -0.098310 0.137085 0.176216 -0.103475 0.004188 0.073621 0.031955 0.297246 0.052468 0.096783 0.017391 0.046553 0.280090 0.026574 -0.085443 0.147936 0.016124 -0.092163 -0.183710 -0.039162 0.004459 0.018368 -0.237590 -0.199090 0.086175 -0.204916 0.070279 -0.034209 0.111146 -0.129023 -0.160003 0.038622 0.188375 -0.020616 0.232693 -0.011523 -0.199723 -0.266301 -0.114503 0.102806 -0.026265 0.203581 0.110572 0.113688 -0.098249 0.009920 0.055131 -0.155371 -0.258028 0.431537 0.018176 -0.218338 0.132827 0.010119 0.043255 0.127025 0.005534 0.188303 0.058578 -0.089804 0.034375 -0.161432 -0.205930 0.086066 0.168677 -0.239060 0.090314
CCT 0.160473 -0.161103 0.159715 -0.078555 0.131936 0.095945 -0.124873 0.059041 0.214997 0.113541 0.001622 0.142734 0.013047 0.147826 0.066534 -0.054160 -0.065424 0.055335 0.029345 -0.133290 -0.044354 0.300708 0.039359 -0.084276 0.083642 0.059159 -0.266116 -0.040939 -0.068736 -0.016803 0.027701 -0.106288 0.144260 -0.127736 0.133672 0.103717 0.016413 -0.143398 -0.004604 0.354052 0.021717 -0.095417 -0.018662 -0.097201 -0.211308 0.137745 -0.072702 -0.227095 -0.200894 -0.033017 -0.109928 -0.107631 -0.030543 -0.036540 0.084423 0.043292 -0.150126 0.079605 -0.128546 -0.035373 -0.020403 0.032196 -0.396360 -0.187828 -0.204268 -0.169596 0.172093 -0.172871 -0.253165 -0.089560 0.017661 0.031798 0.065693 -0.002894 -0.282105 -0.075171 -0.052862 0.194626 0.094895 0.077857 0.238987 0.151698 0.023660 0.077778 -0.040987 0.026238 0.052529 -0.029660 0.238942 0.327394 -0.008060 0.042977 0.188434 -0.098697 -0.251135 0.051563 0.002940 0.001701 0.165961 -0.044256 -0.026023 -0.003362 -0.034171 0.095320 0.042147 -0.175314 0.133178 -0.166227 0.225353 -0.204792 -0.067164 0.131088 0.010310 0.070165 -0.021368 -0.164752 0.029177 -0.007454 -0.081682 -0.061331 0.067237 -0.129631 0.136395 0.083331 -0.064541 -0.009128 0.002844 -0.123855 0.080679 -0.076609 0.142347 -0.014569 0.205538 -0.077764 0.052789 0.188553 -0.059413 -0.018289 0.147727 -0.001988 0.104342 -0.117760 0.061348 -0.097787 0.251860 0.063915 0.288244 -0.024242 0.251689 0.166963 0.174041 0.034780 -0.085869 -0.017405 0.060970 -0.311329 -0.067077 -0.035709 -0.022799 0.106051 0.030604 -0.197526 -0.050269 0.169407 0.098918 -0.060044 -0.061008 -0.219253 -0.134240 0.002242 -0.265374 0.180637 -0.227143 -0.131995 -0.183331 -0.097399 -0.070779 -0.069958 0.010829 0.423139 0.077520 0.081601 0.110059 -0.110602 -0.148000 -0.023890 0.101775 -0.177772 0.290367 -0.020330 0.034093 -0.062893 0.171922 0.085204 0.100719 0.032651 -0.013130 0.094089 0.107170 0.119805 0.012476 0.092711 -0.105678 0.188927 0.157973 0.131307 -0.125403 0.001596 -0.006090 0.281470 -0.260168 -0.033873 -0.031822 0.143082 0.084881 -0.022595 0.041093 -0.231729 -0.028361 0.046155 -0.166126 0.125604 -0.046469 0.069629 -0.060734 -0.147040 0.062825 -0.218899 -0.283860 -0.208902 0.012222 0.151570 0.100531 0.196325 -0.207313 -0.105546 -0.086760 -0.152364 0.156334 -0.109766 0.059715 -0.233127 -0.077419 -0.052257 0.025367 0.064568 0.103951 0.096500 0.063886 0.179950 -0.003236 -0.056282 0.235246 -0.109435 -0.023727 -0.059370 -0.076311 -0.004390 0.029766 0.054597 -0.129650 -0.203256 -0.258097 0.058284 0.230127 -0.080080 -0.086587 0.184928 0.059754 0.227500 0.163964 -0.027385 -0.069672 -0.237383 0.187425 -0.132615 -0.137467 -0.127348 0.152699 0.053663 0.001450 0.067495 -0.085926 0.059620 -0.245595 0.151335 -0.136923 -0.201409 0.037290 -0.104104 -0.093203 0.109339 0.150148 -0.237073 0.182247 -0.104168 -0.199013 -0.321107 0.007992 0.043258
GAA 0.117275 0.098899 -0.250845 -0.041540 0.028396 0.203219 -0.096471 -0.157726 -0.091566 -0.012705 -0.036149 -0.080959 -0.058501 0.042925 0.100490 0.097942 -0.203858 -0.218747 0.052060 0.145510 0.080175 -0.344522 0.035858 0.288908 -0.198592 -0.061186 0.090880 -0.042156 -0.203367 -0.184548 0.007349 -0.233046 0.123484 -0.319032 -0.137160 -0.218836 -0.108085 -0.091850 -0.187441 -0.378290 -0.007115 0.005305 -0.193704 0.148455 0.025501 -0.012298 -0.100921 0.086265 0.049741 -0.192802 0.043303 -0.174316 -0.215213 0.018818 -0.037625 -0.005094 0.270951 -0.153079 -0.180510 0.161759 -0.305743 0.016439 0.104473 0.040468 0.049882 -0.091438 -0.043405 0.194929 0.080755 -0.133557 -0.204020 -0.206418 0.181091 0.019992 0.106631 0.046087 -0.151749 -0.366879 -0.074006 -0.206961 0.072703 -0.041652 -0.095462 0.054247 -0.147106 -0.104262 -0.042370 0.018095 -0.181219 -0.183383 0.115330 -0.091693 -0.005656 -0.054474 0.076053 -0.164141 0.030878 0.131542 -0.084935 0.056217 -0.021367 -0.040534 -0.106843 0.030333 -0.046936 -0.119734 -0.265212 0.223501 -0.086653 0.140520 -0.072473 -0.067061 -0.041307 -0.024353 0.418744 0.008122 -0.074205 0.183915 -0.159902 -0.257079 0.003937 -0.020970 0.099864 -0.020272 -0.043342 -0.164508 0.176324 0.027259 -0.224504 -0.033337 -0.004006 -0.166899 0.147410 -0.000577 0.247641 -0.147091 -0.042723 -0.106278 -0.213386 -0.074545 0.162140 -0.034722 -0.030856 -0.124208 -0.245345 0.061744 -0.381778 0.083336 -0.125477 -0.052627 -0.132942 -0.110988 -0.074761 0.061729 0.335464 0.403111 -0.107868 0.017930 -0.263499 0.166728 0.005968 0.052389 0.121669 0.094275 0.281703 0.092172 0.132465 0.019250 0.034510 -0.093428 -0.043721 -0.032100 0.066428 0.053451 -0.092850 0.100040 0.185562 0.128996 0.110593 -0.280728 0.099525 -0.041825 -0.220813 0.010012 -0.020195 -0.053378 0.009983 0.007643 -0.175397 -0.346952 -0.043795 -0.180744 0.067606 -0.021643 0.184894 -0.262297 -0.152246 -0.268792 -0.038555 -0.092452 -0.027275 0.197495 -0.063714 -0.158929 -0.043690 0.206057 0.095671 -0.222258 0.105119 -0.090726 0.042168 -0.148355 0.070475 0.238052 -0.051250 -0.064925 0.091089 0.149777 0.019849 -0.240805 0.138745 0.160504 0.034478 -0.069435 0.219563 0.098627 -0.024546 -0.163275 0.099859 -0.017251 0.044972 -0.167684 0.035562 -0.054788 -0.078517 0.188577 0.066898 0.025881 0.014629 0.071113 0.031317 -0.039568 0.064328 -0.152184 0.187468 0.014621 0.097304 0.168685 -0.176759 -0.104394 0.121852 -0.154522 0.005400 -0.054786 -0.164993 -0.017660 -0.005582 0.045804 0.011428 0.052608 0.045602 0.228984 0.071504 -0.037130 -0.107684 0.072395 -0.066126 -0.286903 0.054375 0.154840 0.220636 0.122725 -0.298424 0.148414 0.278037 -0.089683 0.022627 -0.169090 0.205201 0.145805 -0.084343 -0.382872 -0.049288 0.066756 0.121926 -0.003921 -0.019231 0.207287 0.193722 0.001681 0.049867 0.091571 -0.111856 0.402814 -0.116229 -0.022289 0.184228 -0.109869 0.008244 -0.106701
GTT -0.184201 0.128231 -0.114394 -0.082915 0.162231 -0.309242 -0.015823 0.218290 0.286074 -0.007153 0.024089 -0.102106 -0.087876 -0.088591 0.148688 -0.171656 0.036739 -0.173329 0.171100 -0.259646 -0.379128 0.030092 -0.173946 -0.042697 -0.025403 0.065958 0.046432 -0.161627 -0.147963 0.094061 0.144410 -0.177473 -0.087133 0.330590 -0.135691 -0.099181 0.169214 0.253773 0.008296 0.027390 -0.073094 -0.120191 -0.143758 -0.182001 0.099598 0.100639 -0.082916 -0.204810 -0.014778 -0.048094 0.063619 0.110827 0.085063 0.033546 0.057779 -0.099509 -0.001567 0.000408 0.084462 0.052200 0.098974 0.037792 0.216914 0.341717 -0.122282 0.388893 0.019080 0.256837 0.108221 -0.104647 -0.200237 0.186320 -0.024286 0.039470 0.226517 0.004487 -0.080477 0.124372 -0.245301 -0.044938 -0.133558 -0.136099 -0.153959 -0.377412 -0.072150 0.068254 -0.003916 0.184469 0.073393 -0.100034 -0.022506 -0.048629 0.051984 0.194862 -0.096285 0.066310 0.120488 -0.061477 -0.008573 -0.268059 -0.101587 -0.060515 0.248089 -0.143260 0.095582 0.157473 0.137193 0.064248 -0.131863 0.103607 0.158284 -0.185701 -0.157490 -0.190191 0.098566 0.029502 -0.130547 -0.095142 0.102004 -0.133075 0.151309 -0.027957 0.082276 0.087774 -0.043942 -0.214395 -0.044362 0.005584 0.179036 0.009569 0.016712 0.053581 -0.166932 -0.195432 0.096318 -0.084720 0.160168 -0.050452 0.039430 -0.014957 0.002835 0.281680 0.068927 0.207053 0.049763 0.086521 0.305708 -0.003965 -0.053041 -0.151257 -0.037143 0.091175 0.012343 0.148824 -0.130018 -0.011846 -0.123576 -0.143561 0.125069 -0.014911 0.178880 -0.333991 -0.276048 0.084170 -0.272733 -0.114327 -0.046237 0.262651 0.286379 0.096640 0.119300 -0.099181 0.031707 0.083014 0.143397 0.192105 -0.015654 -0.002744 0.046452 -0.092608 -0.184061 0.151878 0.054550 0.047447 -0.015552 -0.109527 0.051672 -0.138049 0.154311 -0.105727 0.096849 0.087883 -0.043817 -0.023314 -0.184496 0.029114 0.007235 0.260636 0.106281 -0.152497 -0.057090 -0.097701 -0.028492 -0.055152 0.005091 -0.144058 0.113681 0.084503 -0.076675 -0.154630 0.158314 0.143504 -0.040071 -0.233297 -0.018368 0.045200 -0.119735 0.295628 0.053468 -0.077891 0.129719 -0.140181 0.147050 0.043384 -0.239919 0.054367 -0.001060 0.074886 0.216517 0.078667 -0.343455 0.088096 -0.001552 -0.166425 0.031830 0.147293 -0.036242 -0.132687 0.091370 0.182872 0.228911 0.121703 0.331112 0.175236 0.023072 0.053681 0.095640 -0.236262 0.004263 -0.267239 0.101543 0.012352 -0.088711 0.143466 -0.048826 -0.164196 0.077601 0.196552 -0.207920 0.093896 0.181701 -0.037522 0.053444 -0.143469 -0.028573 -0.114816 0.156584 0.066470 -0.029231 -0.003533 -0.057454 -0.064605 0.158525 0.148335 0.021478 -0.023953 0.090665 0.105645 -0.031360 -0.133158 0.129426 -0.321698 0.176027 0.074956 -0.095842 0.058711 0.196115 0.329250 0.052618 0.050806 0.271367 0.188794 -0.095866 -0.263243 -0.060017 0.060632 0.024644 0.031746 0.022502 0.015872
TTA 0.102345 0.034207 -0.117569 0.122865 0.117306 0.091581 0.127651 -0.020420 0.133134 0.180334 -0.176246 -0.003617 -0.011336 -0.174472 -0.015468 -0.022856 -0.088701 -0.214618 -0.172087 -0.146518 -0.259917 0.112089 -0.127382 0.075727 0.297475 0.137769 -0.125399 -0.036664 0.153850 -0.008357 -0.023666 -0.058710 -0.167668 0.227161 -0.075488 -0.008274 0.109554 0.227512 0.244256 -0.098783 -0.151966 0.039461 0.136532 0.333679 0.118366 0.121435 -0.021035 -0.241385 0.124108 -0.052753 -0.213735 0.029777 0.226444 0.222961 -0.193645 0.001946 0.169885 0.255509 0.196046 0.117148 0.250994 -0.109091 0.297692 0.173200 -0.471028 0.139683 -0.165764 0.025789 0.182770 -0.084648 0.057446 0.317257 -0.043257 -0.075902 0.052758 0.087980 0.191716 0.047567 -0.175273 0.161080 0.024693 -0.140703 0.138601 -0.026906 -0.042644 0.298052 -0.114947 -0.067179 -0.107368 0.128086 -0.026930 -0.123165 0.080016 0.093236 -0.029328 0.348282 0.219417 -0.325881 -0.240067 -0.201453 -0.047058 0.387081 0.107751 -0.040151 -0.193126 0.249653 0.146676 0.077556 -0.163768 0.109132 -0.019372 0.017460 -0.121628 -0.103488 -0.041595 0.146630 0.228040 0.076222 0.156692 -0.065315 0.054215 -0.122558 0.053585 -0.308147 -0.165893 -0.368396 0.061172 0.088797 0.271122 -0.100996 -0.179469 -0.118463 -0.246689 0.045008 -0.006586 -0.072610 0.093385 0.075563 -0.140155 -0.048094 -0.166368 0.044350 0.119356 0.017370 -0.168740 0.083220 0.095370 -0.048324 -0.100611 0.001913 0.161449 -0.007750 -0.094449 0.125619 0.076531 0.087044 0.003369 -0.121349 -0.031318 -0.037630 0.336281 -0.123950 -0.146953 0.063703 -0.235187 0.038249 0.071333 0.398137 0.148289 -0.204212 0.346287 -0.125106 -0.035192 0.037371 0.421597 0.054402 -0.012437 -0.004936 0.468716 -0.003735 -0.116377 0.011283 0.195922 0.036708 -0.150778 -0.366539 0.013804 0.116391 0.171821 0.227440 0.024071 0.109352 0.135953 -0.143781 0.032585 -0.115577 0.014452 -0.126999 -0.080127 -0.102905 0.115002 -0.064858 0.130888 0.099506 0.057852 -0.126398 -0.046554 -0.006319 0.041327 -0.119351 0.029223 0.041897 0.042561 -0.269561 0.056686 -0.149975 0.039231 -0.046345 -0.369068 -0.063140 0.212642 -0.184204 0.166982 0.103822 -0.100659 -0.204304 -0.017461 0.172731 0.060395 0.025892 0.117240 -0.077861 -0.030718 0.160282 0.189235 0.199348 0.057878 0.127344 -0.053737 -0.110450 0.162854 0.021890 0.247385 0.083589 0.127319 0.141663 0.007192 -0.219155 0.135479 0.061601 -0.076363 0.013435 0.144103 0.017895 0.137955 0.014086 0.144922 0.076020 -0.094450 0.126574 0.044096 0.073217 0.141116 0.054414 0.076917 0.175006 0.040080 -0.014835 0.158289 0.139905 -0.308606 -0.061635 0.083118 0.078604 0.349414 -0.299072 -0.107801 0.133619 -0.151447 0.006647 -0.144505 0.122077 0.161618 -0.087060 -0.204073 0.064431 0.059771 0.061684 -0.000069 -0.013830 -0.283057 0.024098 0.063102 -0.223033 -0.150466 0.017303 -0.251538 -0.122135 0.021922 0.169065
CCA -0.302238 -0.123384 0.181248 0.005409 -0.154606 -0.224292 -0.052791 0.165631 0.175322 0.016426 0.044813 0.298040 -0.099882 0.023649 0.052279 -0.073772 0.028987 0.291396 -0.048163 0.037068 -0.019332 0.155928 -0.214542 -0.157003 0.037479 0.021036 -0.224622 0.035544 0.026863 -0.040037 -0.034467 -0.020606 0.058925 -0.120984 0.102733 0.229110 0.100460 -0.075436 -0.208424 0.087057 -0.162401 0.112070 0.174915 -0.013227 -0.051809 -0.027158 -0.051203 -0.172251 0.202319 -0.221113 0.006337 -0.203130 -0.079314 0.219222 0.073785 -0.167715 -0.229693 -0.066272 -0.019187 0.015406 0.153579 -0.036287 -0.220970 -0.289623 0.203688 -0.041490 0.240604 -0.156478 -0.133752 0.167497 0.192398 -0.036008 0.126168 0.132706 -0.200986 -0.066615 0.129889 0.079875 0.040920 0.061580 0.117845 0.132800 -0.120369 0.060193 0.064237 -0.053939 0.044028 -0.229817 0.182174 -0.005687 0.102924 -0.177534 0.008859 -0.283417 0.068492 -0.325262 0.006049 0.009595 0.065598 0.142128 -0.026488 -0.172900 0.204831 0.331068 0.114482 0.037876 0.120126 0.019772 0.238813 -0.117127 -0.035678 -0.106337 0.172864 0.118478 0.117320 -0.063461 -0.064533 -0.175137 -0.166830 0.109691 0.061023 -0.050674 -0.086453 0.076054 0.138066 0.217008 -0.192245 0.001163 -0.161527 -0.034408 -0.060214 -0.084765 0.209676 0.069838 -0.157403 0.049091 0.071585 -0.209356 0.094016 -0.038571 0.036817 -0.136211 0.043838 -0.141210 0.090209 -0.023865 0.001826 -0.074195 0.071232 -0.093950 0.221796 0.063480 0.206018 -0.059410 0.393759 -0.190828 0.068878 0.084353 0.072706 -0.049110 -0.156189 -0.090621 0.219578 -0.052433 0.007300 -0.055458 -0.191528 -0.075593 -0.330511 0.082349 -0.105823 0.173071 -0.154433 0.044970 -0.274059 -0.074267 -0.147331 0.270732 -0.049604 0.299809 -0.169283 0.055071 0.167281 0.083929 -0.240043 0.130906 0.066680 -0.023695 -0.018127 -0.037298 0.090494 -0.084169 -0.049095 0.044535 0.091554 0.024319 -0.115653 -0.062345 0.284504 0.158848 0.045911 0.051860 0.194188 0.056561 0.134731 -0.005127 -0.224611 -0.036569 0.254871 0.250467 0.017962 0.206667 -0.040986 0.223500 0.047868 0.009678 0.004449 -0.256159 0.213225 0.132342 -0.216936 0.179267 0.068361 -0.032498 -0.005791 -0.054409 -0.073639 -0.011379 -0.143958 0.242007 -0.077611 0.176162 -0.005999 0.100991 -0.399261 -0.131273 -0.017921 0.022796 -0.063190 -0.042341 -0.137671 0.068148 -0.233639 0.160451 -0.018660 -0.148272 0.018413 0.287641 -0.081606 0.104777 -0.131053 -0.070900 -0.085198 -0.191665 -0.167216 -0.034474 0.140437 -0.199454 -0.001678 -0.206518 -0.164741 -0.011510 -0.014832 -0.006099 0.083059 0.129024 -0.074615 -0.050765 0.065978 0.138302 0.124957 0.004917 0.099542 -0.066273 0.055654 0.090466 -0.099651 -0.057432 0.146792 -0.176471 0.180479 0.027046 -0.146995 -0.059929 0.002622 -0.102548 -0.110747 -0.019302 -0.055014 -0.051515 -0.004631 -0.178747 0.191485 -0.099098 0.202101 0.088627 -0.097464 -0.211069 0.111369 0.114449
TCA -0.175078 0.171487 0.053333 0.009859 -0.107972 -0.154273 0.004125 0.004268 -0.276462 -0.179296 0.056006 0.136920 -0.032993 -0.115899 0.098052 0.070827 -0.011490 0.198922 -0.154447 -0.163574 0.012027 0.068076 -0.092330 -0.192448 -0.166198 0.112047 -0.084904 0.111074 0.178096 0.060881 -0.108119 0.137812 -0.112054 0.246753 -0.106631 0.197679 0.107058 -0.020983 -0.240264 -0.024271 0.167967 0.166373 0.252516 -0.080745 0.069966 0.096632 0.088305 0.045270 -0.014974 0.200913 -0.163305 0.293261 0.249787 -0.005841 0.022990 -0.249689 0.151021 0.090788 0.112115 0.032402 0.039436 -0.306330 -0.103294 -0.097004 0.092149 0.036876 0.209490 -0.170378 -0.094040 0.037904 0.077303 -0.040908 -0.122685 -0.169152 0.144954 -0.054373 0.000761 -0.036787 -0.002316 0.061663 0.056939 -0.091674 0.073739 -0.040427 0.075028 -0.216930 -0.110442 -0.175920 0.020308 -0.067378 0.028915 -0.145802 0.024055 -0.061922 0.053120 -0.084612 -0.132701 -0.180885 -0.000255 -0.020116 -0.233666 -0.006184 -0.036975 0.179665 0.231744 0.053111 -0.015145 -0.084921 0.007634 -0.025329 -0.030854 -0.104844 -0.260855 0.030961 -0.214305 0.195796 -0.112242 0.058809 -0.068403 0.099971 -0.115474 -0.057712 -0.156339 -0.288418 0.260630 0.243152 -0.083167 0.200337 -0.163729 0.058736 -0.044215 -0.119642 0.060865 -0.047506 -0.043081 -0.001743 0.031447 -0.085224 0.094746 0.153132 -0.071943 0.048743 -0.131542 0.078114 0.018664 -0.222863 0.060490 -0.040596 -0.056049 -0.067273 0.025876 0.107055 0.154319 -0.078932 -0.057104 -0.013317 0.286305 -0.137292 0.123295 0.132648 -0.278131 -0.134598 0.090058 0.009025 -0.107508 0.069496 -0.033050 0.058931 -0.182639 0.169485 -0.099666 0.038620 -0.040092 0.167571 0.090964 0.151034 0.082241 0.124443 -0.066809 -0.011798 -0.106655 -0.062793 0.048855 0.036148 -0.107055 0.046595 0.021491 0.192154 0.079517 -0.120916 -0.024462 0.011747 -0.103440 0.068951 -0.004202 0.002523 -0.148866 0.229422 0.100744 0.286013 0.033792 0.009408 0.121713 -0.087465 -0.013266 -0.293450 -0.038365 0.094142 -0.029647 -0.034464 0.202058 -0.010131 -0.253056 0.031888 -0.011907 0.040747 0.025599 0.168901 0.088229 -0.123903 -0.009963 -0.158993 -0.219786 0.055121 0.051839 0.038751 -0.319354 0.225281 -0.110870 0.177948 0.159201 0.037020 -0.127452 0.094962 0.036889 0.027146 -0.019029 0.142320 0.020369 -0.063403 -0.154491 0.107064 -0.215283 0.126399 -0.382503 -0.152951 0.168322 -0.000488 0.265618 0.156063 -0.014181 0.150238 -0.151192 -0.137051 -0.161797 -0.039985 0.341423 0.021545 0.114009 -0.250149 0.030642 0.350704 -0.061166 -0.050572 -0.145572 0.141391 0.052267 -0.106725 0.023481 -0.121126 -0.202166 0.016445 0.259562 0.067457 0.031228 0.178711 0.192056 0.003216 0.055324 -0.030889 -0.356358 0.057769 0.049813 0.063047 0.033265 -0.124192 -0.060549 0.069744 0.031939 0.172250 -0.132234 -0.082258 0.055259 -0.043515 0.032629 -0.101160 -0.091900 0.073692 0.041817 0.073634
CTC 0.255561 0.048223 0.021937 -0.072890 0.047462 0.036916 -0.116966 0.150421 -0.141870 -0.086688 0.119200 0.082845 0.088931 0.113835 0.062451 -0.025718 0.014623 0.135373 -0.131306 -0.074557 0.176616 0.307375 0.097750 -0.232527 -0.033901 0.102896 -0.162049 0.102476 0.099097 -0.013723 -0.001435 0.052776 0.080383 0.036266 0.123971 0.148242 0.079844 -0.215236 -0.100385 0.390874 0.334277 0.090884 0.047182 -0.223031 -0.023712 0.043769 0.099507 -0.011598 -0.293131 0.353482 -0.203700 0.118394 0.075956 -0.229478 0.153681 -0.067682 0.110765 0.050058 -0.129503 -0.016315 -0.137279 -0.179484 -0.410223 -0.110927 -0.113988 -0.174330 0.249785 -0.324306 -0.206738 0.059840 -0.030306 -0.023700 -0.065156 -0.051890 -0.218138 -0.197614 -0.106799 0.155011 0.331506 0.048146 0.204717 -0.002489 0.091029 0.112892 -0.000379 -0.128569 -0.065088 -0.090459 0.206031 0.264510 -0.037916 0.109202 0.071486 -0.008462 -0.238630 -0.057548 -0.243760 -0.109730 0.160788 0.052177 -0.106099 -0.054467 -0.131955 0.182347 0.128243 -0.225615 0.047560 -0.303508 0.112632 -0.330177 -0.003460 0.083191 -0.123322 0.135317 -0.337947 0.002079 -0.068404 0.046789 -0.087170 0.096992 -0.128101 -0.129780 0.000815 -0.043060 0.182603 0.162004 0.026132 0.055186 -0.029745 -0.125848 0.196068 -0.136538 0.193767 -0.137225 0.121589 0.128795 -0.127244 -0.030155 0.213786 0.094533 0.088335 -0.032797 -0.182483 -0.084065 0.326944 -0.054299 0.121284 0.025185 0.184787 0.165151 0.046400 0.108693 -0.091979 -0.069150 -0.249302 -0.324171 0.181118 -0.189831 0.081332 0.315074 -0.244716 -0.044367 -0.012473 0.142132 0.079858 0.064082 -0.059717 -0.246850 -0.071672 0.109016 -0.355811 0.206833 -0.171068 -0.069974 -0.171943 -0.011912 -0.007558 -0.156766 -0.154875 0.283646 0.165212 0.204369 -0.030109 -0.106371 -0.082814 0.055720 0.208809 -0.007847 0.212597 -0.150619 -0.048923 0.010637 0.139784 0.047665 0.050929 -0.013890 -0.042779 0.199591 0.018797 0.112983 -0.098010 0.118962 -0.167309 -0.064609 -0.039934 -0.113650 -0.003118 0.082962 -0.073455 0.065062 -0.147460 -0.057783 -0.207059 0.070115 -0.049297 -0.011923 0.018621 -0.020385 0.136100 -0.036076 -0.285910 0.042071 -0.244292 0.244652 0.024264 0.015986 -0.019908 -0.175992 -0.308243 -0.194836 0.132160 0.087590 -0.015750 0.233751 -0.054378 -0.079247 -0.052065 -0.126648 0.145269 -0.083929 -0.117953 -0.256636 -0.255640 -0.065356 -0.194836 -0.061637 0.197876 -0.021545 0.228182 0.200879 0.126240 0.132234 0.224219 -0.083569 0.007384 -0.036467 0.132684 -0.070872 0.126845 -0.065743 0.037439 -0.005028 -0.232079 0.009995 -0.040747 -0.071113 0.052726 0.038546 -0.061101 0.102469 0.066820 0.026943 -0.010278 -0.225639 0.045681 -0.071411 -0.024086 -0.137076 0.137941 0.107799 -0.282694 0.122552 -0.210162 0.101144 -0.113092 0.083333 -0.169782 -0.199815 0.034207 0.066308 -0.142473 0.189393 0.253088 -0.080801 0.196899 -0.120071 -0.237581 -0.229192 0.035208 -0.052193
TGA 0.104979 -0.068134 -0.135853 -0.082266 0.067150 0.121673 -0.038607 -0.427756 -0.074883 0.040878 -0.038847 -0.048532 -0.046225 -0.058161 0.043146 0.244187 -0.150722 -0.125425 -0.058966 -0.019847 -0.076662 -0.387850 0.219640 0.370110 -0.180553 0.061625 0.025891 0.022579 0.035211 0.029282 0.205482 -0.095764 0.137137 -0.211839 -0.092521 -0.031273 -0.093774 -0.192563 -0.010808 -0.238899 0.079427 -0.235238 -0.246359 0.184739 -0.118387 0.088894 -0.210033 0.028486 -0.009664 -0.201800 -0.008020 0.055781 0.022531 0.056105 -0.138997 0.175060 0.059600 0.041651 -0.087669 -0.065224 -0.162824 0.144571 -0.019787 -0.064516 0.096372 -0.040564 -0.136914 0.185983 0.026275 -0.312010 0.009440 -0.009226 0.004632 -0.104911 0.147151 -0.123526 -0.100977 -0.198080 -0.256756 -0.124402 0.007009 0.049876 -0.111076 0.020789 -0.026994 0.074012 -0.060468 0.241872 -0.125049 -0.074803 0.213888 -0.046525 -0.018697 -0.124409 -0.176644 -0.020454 0.096058 0.303655 -0.010086 0.022240 0.151395 -0.034300 -0.276773 0.065065 -0.093106 -0.158643 -0.074733 0.069165 -0.041057 -0.062613 -0.055162 -0.158979 -0.150918 -0.060281 0.239396 -0.157121 0.229032 0.178512 0.029345 -0.142956 -0.007743 0.074433 -0.016815 -0.025525 -0.106274 -0.023583 0.114381 0.040979 -0.165735 0.227685 -0.095130 -0.060869 0.082576 0.057942 0.135532 0.213489 0.106677 0.065997 -0.101372 0.040347 -0.024795 -0.102000 0.052889 0.178122 -0.154711 -0.127955 0.111260 0.130024 0.112505 0.128768 -0.284938 -0.170410 0.020191 -0.061143 -0.014353 0.340682 -0.288890 0.074262 -0.105764 -0.028199 0.076501 -0.164794 0.192601 0.228613 0.215935 -0.179874 0.246634 0.069855 -0.014283 0.108240 0.058536 0.040869 0.057223 -0.025697 0.049517 0.051161 0.085464 -0.070308 0.241101 -0.125246 -0.034322 -0.282120 0.054722 0.038448 0.183694 -0.155157 0.022398 0.023457 -0.030516 -0.018512 0.042175 -0.234616 -0.148313 -0.037895 -0.042450 -0.063271 0.024259 0.016919 -0.038764 0.148777 0.009519 0.100156 -0.005757 0.222581 0.151722 0.182677 -0.080696 -0.099608 -0.005008 0.032839 -0.151887 -0.360910 -0.094913 0.022289 -0.038043 -0.099249 -0.065413 0.046152 -0.086592 -0.071072 0.117300 0.131473 0.065107 -0.178334 0.191254 0.013842 0.008841 0.010232 0.001502 -0.259520 0.027214 -0.199205 0.026602 -0.148482 0.098038 0.218874 0.060135 0.050536 0.074484 -0.038237 0.214495 0.057028 -0.068624 -0.183792 0.147532 0.202127 0.040451 0.110442 -0.003465 0.082556 0.073924 -0.260839 0.020223 -0.136587 -0.205039 -0.094014 -0.083231 0.120010 -0.065404 0.038509 -0.045717 0.136007 -0.131435 0.014076 0.040761 0.049109 -0.116502 -0.018938 0.015837 -0.137370 -0.049478 0.008210 -0.199323 -0.187617 0.203723 0.285180 0.072329 -0.192942 0.181003 0.072987 -0.380811 -0.342439 0.212387 0.148522 0.011944 0.003743 -0.271886 -0.055863 0.254048 0.001259 0.049594 0.073265 -0.183627 0.322793 -0.166546 -0.199028 0.260626 0.113209 -0.161721 -0.004195
GGT -0.256632 0.105896 0.116412 -0.061646 0.079908 -0.176841 -0.040547 0.177789 0.112208 -0.089324 0.070811 -0.098106 0.009692 0.170398 -0.006294 -0.317328 0.132950 -0.100274 0.342647 -0.196067 -0.063646 0.097538 -0.031213 -0.147509 -0.156615 -0.157025 0.167279 -0.216767 -0.179813 0.086707 -0.076627 -0.064014 -0.105224 0.183622 -0.168660 -0.221841 -0.023254 0.250591 -0.049443 0.081407 0.065407 -0.173990 -0.044869 -0.291859 -0.128817 -0.001875 -0.009271 0.012661 -0.194164 -0.008935 0.167033 0.092074 0.038525 -0.203965 0.126077 -0.178080 -0.146856 -0.059250 -0.000718 -0.058736 -0.025359 0.075344 0.115461 0.258654 0.073764 0.285546 0.038497 0.225513 -0.044675 -0.018636 -0.103935 -0.134687 -0.069111 -0.119802 0.134035 0.173633 -0.201804 0.059308 -0.124017 -0.150812 -0.084266 -0.100143 -0.048461 -0.256580 -0.042214 -0.083044 0.162519 0.047173 0.081801 -0.109704 -0.143848 0.058056 0.021854 0.286675 0.041630 0.097113 0.121825 0.038416 0.079937 -0.195526 -0.179601 -0.201480 0.219738 -0.344921 0.189874 0.120349 -0.047953 0.063701 -0.085909 0.186613 0.106796 0.000708 -0.087004 -0.131057 -0.082236 0.110674 -0.338742 0.004466 0.074207 -0.089999 0.160149 0.094654 0.098265 0.144683 0.093257 -0.057625 0.007405 -0.020819 0.155058 0.102974 0.172696 0.316318 -0.098429 -0.301978 -0.064780 -0.123384 0.055619 0.049784 -0.005091 -0.011199 0.049855 0.197327 0.041504 0.173833 0.055122 0.057886 0.128682 -0.079156 -0.091826 -0.095151 -0.067593 0.194664 0.016008 0.071445 -0.133584 -0.036937 -0.046258 -0.017202 -0.044397 -0.046767 0.046853 -0.116379 -0.316649 -0.036925 -0.229057 -0.030958 -0.021391 -0.028132 0.167115 -0.003097 -0.058806 -0.133439 0.045415 0.042115 0.071317 0.143814 -0.023317 -0.057705 -0.294899 -0.211543 0.005294 0.065341 -0.154180 -0.120930 0.025866 0.105441 -0.094696 -0.134220 0.106131 -0.180818 -0.003167 0.133170 -0.043636 0.056774 -0.048040 0.149596 0.048011 0.238006 0.079150 -0.127558 -0.049159 -0.143813 -0.103096 -0.069049 -0.015790 -0.021374 0.192122 0.108815 -0.283163 -0.014203 0.131323 0.122562 -0.045607 -0.113984 0.038323 0.136286 -0.057948 0.266856 0.011540 -0.056490 0.190875 -0.261843 -0.075622 -0.061436 -0.182775 0.155617 -0.040026 -0.061113 0.193007 0.112148 -0.335576 0.197860 0.037355 -0.234839 0.062406 -0.027630 -0.094433 -0.214826 0.108782 0.173955 0.044931 0.107663 0.337417 0.174518 -0.108389 -0.104219 -0.071330 -0.134875 -0.048068 -0.325493 0.064140 0.140396 -0.261897 0.157677 -0.055683 0.028562 -0.068534 0.250328 0.034965 0.021686 0.113744 -0.106867 -0.008528 -0.058726 -0.011208 -0.369021 0.163252 0.154293 -0.148172 -0.141764 0.220606 -0.030148 0.136897 0.190594 -0.267283 0.085941 0.142818 0.241841 -0.037162 -0.051551 0.289849 -0.166611 0.054084 0.036940 -0.005904 0.086341 0.268782 0.315098 -0.017066 0.037864 0.293390 0.083111 -0.208104 -0.281258 0.040600 0.002892 0.147935 0.204498 0.043478 0.020927
AGG -0.251324 0.016404 -0.011192 0.065102 -0.041592 -0.014035 0.133502 -0.169391 -0.063204 0.166491 -0.086660 0.099209 0.030930 0.083679 -0.051252 -0.264939 -0.008611 0.056528 0.211133 -0.000356 0.068117 0.002367 0.090289 -0.190325 -0.101864 -0.182081 0.087755 -0.028676 -0.184091 0.010233 -0.357753 -0.112324 -0.044419 -0.076237 -0.248619 -0.151961 -0.010311 0.175188 -0.045101 -0.175770 -0.012401 -0.089605 -0.050881 0.067238 -0.280362 -0.154948 0.223671 0.123947 -0.239706 -0.232030 0.025360 -0.089968 0.000005 -0.073390 -0.038360 -0.272360 -0.217735 -0.025117 -0.021941 -0.077974 0.041030 0.040627 0.165512 0.173204 0.095337 0.017658 -0.055934 0.071274 -0.049628 -0.120758 0.079291 -0.193444 -0.006356 -0.078337 -0.023743 0.275165 -0.248630 -0.116120 -0.181321 0.025224 0.133337 -0.109712 0.011028 0.011837 -0.103447 -0.211776 0.349105 -0.181085 0.105485 0.005951 0.026653 0.074398 0.039702 0.142627 0.124718 -0.055258 0.121537 -0.005544 -0.069254 0.038924 0.061987 0.049798 0.113660 -0.141711 0.023997 0.070410 -0.189904 0.009954 0.001138 0.215867 -0.109504 0.215213 0.005589 -0.000787 0.030073 0.073561 -0.202329 0.170324 0.024238 0.008349 -0.040413 0.067788 -0.061287 0.032999 0.140744 -0.031032 -0.066736 -0.056596 0.027202 0.007292 0.068074 0.299219 0.106419 -0.049335 -0.159308 -0.119117 0.107605 -0.029964 -0.287603 -0.147164 0.018673 0.086322 -0.061472 0.134128 -0.074751 0.085768 -0.228247 -0.069519 -0.123745 0.077222 -0.161033 0.214909 0.045678 -0.106022 0.162971 0.059456 0.024850 0.115303 -0.257409 0.026101 -0.159338 -0.040201 -0.122167 -0.126472 -0.061012 0.286764 0.214670 -0.085222 -0.148561 -0.168882 0.137748 -0.013456 0.078763 0.091364 0.027589 0.041379 0.058043 -0.017984 -0.184834 -0.253389 0.170436 -0.159447 -0.265491 -0.082780 0.080435 0.220623 -0.101837 0.096127 -0.116703 -0.201494 0.014439 0.085330 0.090350 0.073284 0.148575 0.064220 -0.047093 -0.103292 0.132577 0.143388 0.106292 -0.186046 0.009058 -0.102184 -0.038760 0.200933 0.132649 0.071343 -0.238453 0.141387 -0.027737 0.021933 -0.029647 0.223928 -0.041907 0.042728 -0.017138 -0.067575 0.012428 -0.050734 0.085838 -0.244545 -0.072738 0.027380 0.107313 0.093125 -0.246361 -0.047330 0.166038 0.176969 -0.162917 0.235757 0.173232 -0.151376 -0.055181 -0.025221 -0.043417 -0.105106 -0.064491 -0.017914 -0.099159 -0.065467 0.056514 0.020242 -0.022260 -0.112030 -0.213190 0.010914 -0.004274 -0.253924 0.056003 0.111022 -0.192309 0.105629 -0.058528 0.145016 -0.113746 0.151246 0.143250 0.108712 -0.020506 0.185912 0.173723 0.187754 -0.103339 -0.188777 -0.010003 -0.042328 -0.054434 -0.111433 0.322069 0.004111 -0.045448 0.213298 -0.104258 0.100674 0.007219 0.175368 -0.031878 0.089469 0.113435 0.030382 -0.125473 -0.069062 0.146691 -0.083594 0.265548 0.161541 -0.040851 -0.108301 0.165983 -0.263839 -0.130677 -0.087859 0.017780 0.044150 0.123774 0.241002 0.152716 0.055070
AGA 0.027698 -0.077008 -0.078984 0.136929 -0.153158 0.092211 0.165828 -0.410078 -0.234199 0.123761 -0.203177 0.091490 -0.071504 -0.303145 -0.053296 0.074741 -0.211538 -0.008705 0.013194 -0.017928 -0.064801 -0.156878 0.207621 0.219282 0.057849 -0.055899 -0.014205 0.032550 -0.055820 0.143628 -0.298068 -0.000424 -0.152033 -0.025984 -0.269033 -0.026318 -0.201491 0.010958 -0.059956 -0.582295 -0.054917 -0.093045 -0.182874 0.406689 -0.116742 0.026398 0.174695 0.016621 -0.043707 -0.359696 -0.027404 0.057895 0.144688 0.161610 -0.267208 -0.082903 0.054658 0.071631 0.025449 0.054010 -0.047904 -0.071974 0.285139 -0.028158 0.023926 -0.134175 -0.240690 0.106911 0.024779 -0.272706 0.219570 0.013779 0.088903 -0.103628 0.185578 0.149275 -0.125466 -0.185629 -0.366069 0.039169 0.093627 -0.322507 0.014080 0.243286 -0.021843 0.012338 -0.024955 0.063691 -0.048992 0.073875 -0.019021 -0.087121 0.093077 0.017294 0.229564 -0.098291 0.002775 0.047319 -0.061435 0.232565 0.113012 0.330557 -0.190401 0.121005 -0.097941 0.038294 -0.272585 0.189012 -0.096261 0.151844 -0.178447 0.052320 -0.119410 -0.005112 0.206093 0.051630 0.048144 0.275824 -0.047311 -0.081089 -0.291481 -0.002195 -0.245975 -0.276390 -0.005818 0.059395 -0.055578 0.027520 -0.136895 0.060289 -0.215156 0.089041 0.009909 0.192416 0.055890 -0.011061 0.052214 -0.113534 -0.276271 -0.074210 -0.007327 0.125747 -0.000076 0.131949 -0.351206 -0.066525 -0.224006 -0.003917 -0.033806 0.159782 -0.181549 0.052811 0.071506 -0.176014 0.180772 0.331807 0.014549 0.051983 -0.220507 0.026311 -0.105477 -0.086210 0.036071 -0.083447 -0.006051 0.147661 0.242590 0.069944 -0.325946 -0.108374 0.202271 -0.071595 -0.009944 0.154622 0.156287 0.164502 0.224761 0.028595 0.277269 -0.261763 0.204811 -0.416492 -0.224616 0.080922 0.038021 0.074651 -0.046856 0.143429 -0.295690 -0.117530 -0.104359 -0.085572 -0.105417 0.007237 0.142992 -0.061591 -0.030610 -0.084759 -0.060469 0.230724 0.013228 -0.092090 0.012717 -0.109327 -0.004133 0.246644 -0.010598 0.049066 -0.060062 0.063413 -0.005464 -0.235438 0.046881 0.349414 -0.084774 -0.039490 -0.073999 -0.176120 -0.024266 -0.164319 0.234559 -0.162948 0.012614 -0.068423 0.384863 -0.150651 -0.345014 0.126750 -0.025695 0.211973 0.163673 -0.121866 0.173416 -0.099613 0.001734 0.126957 0.196372 0.214046 -0.106195 -0.177072 0.038658 -0.074239 -0.184101 -0.276167 0.084438 0.045748 -0.035073 0.035135 -0.004544 0.014590 0.174334 -0.043849 0.091892 -0.017202 -0.200245 0.103351 0.113464 0.197355 0.052290 0.181633 -0.040484 0.339784 0.241406 0.322774 -0.014331 0.017155 -0.207461 -0.268012 0.210925 -0.007749 0.005198 0.059335 -0.212728 0.088368 0.129351 0.165158 0.004321 0.004411 0.021597 0.035648 -0.342622 0.063957 -0.048594 0.120029 0.270427 -0.323989 0.008678 -0.081037 0.059989 -0.104107 -0.109949 -0.300588 -0.240512 0.166240 -0.178224 0.034862 0.170104 0.158115 0.154719 -0.058248
TAT 0.133139 -0.020899 0.079806 0.036505 -0.130301 0.089443 0.118602 0.042184 -0.040773 -0.119379 -0.163050 0.080257 -0.023249 0.041024 -0.208679 -0.058007 0.034431 -0.211466 -0.285862 -0.168906 0.014434 0.044201 -0.156797 0.199553 0.242740 -0.051726 -0.164503 -0.157760 0.458030 -0.210991 0.028429 0.075272 -0.068776 -0.041979 0.027852 0.097897 0.033936 0.203564 0.179768 0.055268 -0.090235 -0.079845 0.194193 0.380382 0.047665 0.214185 -0.248221 -0.097961 0.231069 -0.031240 -0.144542 0.124993 0.302841 0.054234 -0.221808 -0.038902 0.046322 0.283399 0.123501 -0.002237 0.161909 0.020650 0.292799 0.158377 -0.206136 0.207475 -0.105547 -0.020212 0.306693 0.056972 0.317200 0.266500 -0.153150 -0.273238 0.037170 -0.055262 0.205974 -0.007534 -0.112292 0.154877 -0.092751 -0.113852 0.134015 0.039863 0.042078 0.378134 -0.195684 -0.170394 -0.278324 0.210225 0.142720 -0.117391 -0.060697 -0.074280 -0.062883 0.502976 0.371602 -0.235534 -0.334739 -0.050075 -0.307724 0.214352 0.037518 -0.077208 -0.302881 0.482121 0.143763 0.194958 -0.350216 -0.151326 -0.035908 -0.146565 -0.086573 -0.031658 -0.344321 0.126996 0.303569 0.077308 0.303953 -0.027100 0.149139 0.083279 -0.132901 -0.418735 -0.058323 -0.291794 0.198646 0.276691 0.214431 0.147001 -0.120295 -0.126313 -0.190387 0.012322 -0.194261 -0.016348 0.089826 0.149950 -0.187894 0.017524 -0.176309 -0.266389 0.274510 -0.098701 -0.241613 -0.071045 0.062746 -0.095950 -0.007936 -0.053391 0.205295 -0.143729 -0.187489 0.141448 0.024429 0.095480 -0.098839 0.035986 -0.181461 -0.114774 0.315674 -0.057364 0.012871 0.209726 -0.247366 -0.266752 0.050362 0.348979 0.245040 -0.224770 0.302333 -0.081435 -0.018968 -0.061265 0.453080 -0.114956 -0.102789 0.032558 0.358935 -0.014371 -0.118808 -0.167646 0.323699 -0.025556 0.001565 -0.391898 -0.064880 0.084660 0.311968 0.360038 -0.049354 0.071546 -0.072565 -0.267241 -0.012237 -0.066492 0.104634 -0.048598 -0.163394 -0.176978 0.086570 -0.022041 0.177762 0.370102 0.106001 -0.176917 0.009586 0.023771 0.066626 -0.017700 0.028384 -0.102780 -0.078010 -0.383357 0.213250 -0.206587 0.046904 0.062227 -0.513185 0.040631 0.275907 -0.214832 0.143349 -0.018534 -0.155678 -0.211541 0.125298 0.063148 -0.039754 -0.119771 0.081787 0.026889 -0.115188 0.130280 0.302746 0.273687 0.130182 0.028916 -0.086110 -0.176401 0.055106 0.340800 0.280104 0.294881 -0.048304 0.109115 -0.159611 -0.101159 0.149183 0.269602 -0.105835 0.053051 -0.080134 -0.166177 0.109710 0.019062 0.170885 -0.064561 0.048071 -0.238112 -0.185903 -0.129564 -0.101613 -0.111316 0.168895 0.097010 0.077379 0.175274 0.092816 0.005190 -0.288012 -0.035559 0.071215 -0.051545 0.172137 -0.020011 -0.078453 0.010626 -0.018815 -0.106957 -0.269778 0.197576 0.169437 -0.165561 -0.455403 0.258738 -0.258838 0.053332 0.001802 -0.080322 -0.397700 0.125537 0.101411 -0.021955 -0.078847 -0.147947 -0.122812 -0.039160 -0.064721 0.374198
GTG -0.284824 -0.131373 0.054163 -0.186077 -0.015970 -0.239554 -0.035410 -0.051841 0.026112 -0.132337 0.013313 -0.158741 -0.078316 0.080867 0.014888 -0.025237 0.230254 -0.161783 0.175079 -0.001696 -0.152500 -0.175947 0.050543 -0.020855 -0.213366 -0.132573 0.303965 -0.018604 -0.007901 0.239121 0.248320 -0.090856 -0.017407 0.005082 -0.063090 -0.118485 0.055325 0.027304 -0.011684 0.093283 0.105796 -0.319535 -0.381053 -0.152560 -0.129823 -0.113693 0.002734 0.077199 0.051537 -0.111878 0.368968 0.087979 0.105784 -0.203522 0.113130 0.110680 -0.249981 -0.106283 -0.000390 -0.124801 0.025409 0.313572 0.072743 0.232689 0.261556 0.156673 -0.137122 0.232545 0.039988 -0.167437 0.093012 -0.027426 -0.069969 -0.043761 0.186373 -0.122174 -0.119218 0.058973 -0.185867 -0.087213 -0.211454 0.045721 -0.227788 -0.263490 0.053892 0.054527 0.251388 0.267728 -0.020533 -0.222582 0.015211 0.127670 -0.120939 0.088593 -0.042823 -0.029141 0.023289 0.401322 0.114714 -0.059027 0.057348 -0.249001 -0.182228 -0.139102 0.109253 0.066616 0.014033 -0.046268 -0.036662 0.011680 0.106609 -0.318085 0.057073 -0.073730 -0.051680 -0.166046 -0.025572 -0.076438 0.116505 -0.080493 0.147496 0.250943 -0.064909 0.200282 -0.105841 0.016071 0.075779 -0.036335 0.066389 0.196813 0.121770 0.264749 -0.110269 -0.009989 -0.118187 0.076336 -0.030955 0.096355 -0.087350 0.064734 -0.085947 0.097379 0.193825 0.374333 -0.028647 -0.228393 0.167638 0.059035 0.218599 0.073110 -0.150298 -0.087419 -0.071735 0.018762 -0.265914 0.064057 -0.363150 0.089800 0.064062 -0.143412 0.095478 0.029352 0.013268 0.006515 -0.136123 -0.224270 0.059901 0.050021 0.074102 0.220080 0.180520 0.009832 0.249724 0.046795 -0.001872 0.008723 -0.216413 -0.142102 -0.278071 -0.170955 -0.093081 -0.089481 -0.049472 -0.009575 0.285015 0.017940 0.047176 -0.037640 -0.144197 0.125459 0.098700 -0.052115 -0.224352 -0.022506 -0.206373 0.212192 0.197255 0.176535 -0.038519 -0.034297 0.086527 -0.223596 0.101004 0.055880 0.113837 0.061129 0.242257 0.018401 -0.154297 0.056212 0.052406 -0.089092 -0.089684 -0.090940 -0.016988 -0.065828 -0.122943 0.164050 0.102188 0.231401 0.137224 0.083805 0.178463 -0.440219 -0.057333 0.080878 0.159350 -0.035954 0.108046 -0.184968 -0.373111 -0.092988 0.015449 -0.361387 0.252454 0.095083 -0.100363 -0.116775 0.099348 0.178297 0.135301 0.048204 0.156177 0.115596 0.017488 0.113730 -0.149817 -0.018997 -0.134156 -0.246640 0.116921 -0.164808 -0.195348 0.165498 -0.192804 0.049745 -0.242857 0.125104 -0.094380 -0.042962 -0.008481 -0.138774 -0.202392 -0.219672 -0.195838 -0.252618 0.097776 0.157907 -0.190750 -0.386101 0.053125 -0.128944 0.034118 0.079227 -0.271775 0.403390 0.201997 0.010823 -0.002404 0.067161 0.022939 -0.331621 0.312654 -0.062575 0.146719 0.028676 -0.066678 0.120839 0.213921 0.016156 0.352254 0.215534 -0.293061 0.184247 0.059283 0.070249 0.308400 0.368130 -0.104546 -0.021707
GGA -0.009135 0.035990 -0.071838 0.045255 0.061615 0.211684 0.093657 -0.373582 -0.206223 0.230929 0.022798 -0.032521 0.050022 0.161337 -0.082079 -0.040598 -0.149114 0.000400 0.104475 0.085937 0.324232 -0.301793 0.198920 0.192241 -0.189057 -0.138880 0.098479 -0.093242 -0.057439 -0.176600 -0.187634 -0.120440 0.137074 -0.301903 -0.172541 -0.178740 -0.206644 -0.033901 0.085947 -0.252429 -0.005984 -0.097944 -0.087541 0.089013 -0.258983 -0.150875 -0.022657 0.251308 -0.243409 -0.171703 0.029231 -0.140327 -0.242846 -0.073618 -0.101250 -0.071426 0.005457 -0.137644 -0.174808 -0.240570 -0.235267 0.041685 0.101475 0.028264 0.235038 -0.057762 -0.100234 0.216957 -0.031872 -0.168202 -0.075785 -0.317027 0.007842 -0.027268 -0.090269 0.164670 -0.206325 -0.309182 -0.084645 -0.162059 0.080337 0.026086 -0.000435 0.117533 -0.107717 -0.189231 0.148629 -0.092991 -0.071274 -0.095320 0.089025 0.060205 -0.028863 0.029945 0.040047 -0.008732 0.129740 0.220063 -0.100752 0.056956 0.213319 -0.106802 0.031194 -0.179614 -0.111693 -0.190822 -0.318705 0.157432 -0.085251 0.145409 -0.040873 0.191222 -0.041493 -0.045333 0.175749 -0.001724 -0.064658 0.240776 -0.049418 0.026336 -0.072251 0.076481 0.067398 0.078017 0.061199 -0.010122 0.112919 -0.067471 -0.118287 0.225451 -0.006507 0.181014 0.122589 -0.089405 0.002345 0.087431 0.172492 0.113200 -0.231273 -0.133019 0.109826 -0.194848 -0.087981 0.042901 -0.102123 0.217737 -0.288308 0.037789 -0.141066 -0.033988 -0.397530 0.004239 0.110918 -0.223375 0.104764 0.355281 -0.037882 0.133465 -0.270913 -0.003949 -0.131682 -0.018384 0.033490 -0.041788 0.281717 0.087960 0.258585 -0.145699 -0.033622 -0.132399 -0.016505 -0.023110 0.068082 -0.112214 -0.041510 0.127339 0.253419 -0.080255 -0.042750 -0.299652 0.218499 -0.190969 -0.227654 -0.102601 0.179264 0.082075 -0.139640 0.033556 -0.147343 -0.123098 -0.127441 -0.108056 0.034965 0.069219 0.181720 -0.009118 -0.034328 -0.196283 0.061100 -0.056406 -0.078907 -0.008997 -0.179918 0.045108 -0.108153 0.286154 -0.046420 -0.062914 -0.177171 0.107932 -0.205066 -0.137220 0.047847 0.019053 -0.038378 0.010456 -0.068018 -0.035803 -0.199360 -0.065722 -0.014643 -0.064540 -0.167355 0.083527 0.176003 0.252972 -0.105859 -0.090309 0.279744 0.000398 -0.071072 0.195321 0.068998 -0.137833 -0.032996 0.042255 0.088771 -0.083223 -0.081966 -0.018715 0.021974 0.043218 -0.016625 -0.225038 0.212608 -0.019582 -0.170267 0.129901 -0.011755 -0.135090 -0.036265 0.025935 -0.080268 -0.062930 -0.032867 0.031036 -0.201756 0.049621 0.141980 0.134724 0.013930 0.199680 0.180856 0.160808 0.093479 -0.070213 -0.027437 -0.022595 -0.107138 -0.141143 0.234518 0.095887 -0.198138 -0.045606 -0.003451 0.143620 -0.014304 0.098236 0.142248 0.019374 0.044201 -0.115114 -0.117093 0.038715 0.056078 0.017021 0.156647 0.084908 -0.041625 -0.057089 0.181290 -0.277999 -0.121072 0.154016 -0.204116 -0.254563 0.300005 0.247662 0.012123 0.017798
GAG -0.087270 -0.134206 -0.137898 0.070398 -0.102698 -0.144697 0.094364 -0.207489 -0.072727 0.134056 -0.110791 -0.011986 -0.029286 -0.141208 -0.083174 -0.174689 -0.026810 0.006453 0.247283 0.022479 -0.081814 -0.159185 0.254324 0.088892 0.015814 -0.164945 0.124037 -0.001642 -0.213978 0.099997 -0.158409 -0.138923 -0.006557 -0.094199 -0.222924 -0.096203 -0.101963 0.034239 -0.003966 -0.354631 -0.014388 -0.275722 -0.447674 0.148031 -0.149199 -0.080910 0.140060 0.027780 -0.141717 -0.353240 0.149116 -0.008432 -0.013271 0.033883 -0.101745 -0.098802 -0.212042 -0.088785 -0.057051 -0.029926 -0.089415 0.172052 0.257739 0.140657 0.186748 0.054564 -0.168435 0.216061 0.055611 -0.238023 0.140184 0.007095 0.090808 0.060006 0.082978 0.061956 -0.331948 -0.076747 -0.331110 -0.018139 0.001961 -0.276319 -0.192847 0.104638 -0.078350 -0.030658 0.201552 0.205821 0.097540 0.063155 0.088829 0.095673 0.038098 0.075307 0.065948 -0.189393 0.054901 0.244718 0.023757 0.261183 0.245772 0.048215 -0.066416 0.034202 -0.096671 0.009802 -0.189458 0.051288 -0.117529 -0.013550 -0.067188 0.053130 -0.011489 0.023153 0.198197 -0.122150 -0.041215 0.160616 0.090073 -0.072875 -0.210836 0.131490 -0.244242 0.081352 0.032195 0.102443 -0.139283 -0.040812 -0.068306 0.077958 -0.022722 0.226695 0.091654 0.100831 0.048049 0.019055 0.161999 -0.144403 -0.229819 -0.132387 0.094963 0.187593 -0.027814 0.217773 -0.144354 0.072114 -0.107268 0.065382 0.086037 0.195979 -0.346965 0.101936 0.033838 -0.148254 -0.057211 0.097489 -0.193755 0.161010 -0.188143 -0.022823 -0.160477 -0.165388 -0.096976 -0.028183 0.021183 0.027731 0.279262 -0.051957 -0.095324 -0.032455 0.170202 0.013484 0.050914 0.079169 -0.068838 0.046420 0.092235 -0.096022 0.050717 -0.253936 0.256225 -0.319740 -0.277606 0.098856 0.297832 0.185764 0.009759 -0.072817 -0.287526 -0.210547 -0.022447 -0.005599 -0.097334 0.032210 -0.026100 0.060897 0.024290 0.090222 0.045895 0.089817 -0.082630 -0.177156 -0.139567 -0.131267 -0.043103 0.309432 0.094290 0.163795 -0.163671 0.075759 -0.098953 -0.178211 0.038209 0.282331 -0.143723 -0.019208 -0.237945 -0.080809 0.210167 -0.072774 0.077903 -0.094111 0.084960 0.007168 0.283303 -0.005627 -0.167803 -0.020302 0.120777 0.123884 -0.220876 0.061495 0.268253 -0.336002 -0.057958 0.138679 0.142285 -0.099058 -0.079266 -0.051838 0.071764 -0.077191 -0.035118 -0.238636 0.158202 0.048873 -0.122836 -0.007569 -0.099299 -0.236981 0.254616 -0.060939 -0.036009 0.111978 -0.149177 0.029078 -0.035368 0.210759 -0.029584 0.214673 -0.040656 0.115062 0.213698 0.264259 -0.029881 -0.175595 -0.159010 -0.097929 0.065977 -0.092186 0.240873 0.040973 -0.266115 0.014076 -0.090603 0.288324 -0.002462 -0.059434 0.055357 -0.040041 -0.125462 -0.101245 -0.129927 0.111723 0.210182 -0.254479 0.085759 -0.007237 0.031955 -0.190467 0.259351 -0.196132 -0.270469 0.095052 -0.094795 0.105437 0.303018 0.245350 0.123883 -0.132149
TAA 0.161333 0.048142 -0.076135 -0.017848 -0.000257 0.327269 0.010194 -0.037095 0.022874 -0.075112 -0.215763 -0.004329 -0.017315 0.014591 -0.005621 0.059208 -0.091720 -0.351667 -0.197020 0.027105 -0.122644 0.061342 -0.144211 0.063083 0.123862 -0.001403 -0.040265 0.010640 0.096131 -0.101112 -0.035055 -0.070664 -0.114087 -0.052980 -0.027400 -0.121555 0.053304 0.140339 0.001795 -0.102706 -0.062124 0.097985 0.169972 0.373434 0.063236 0.059354 0.013115 -0.073467 0.196145 -0.065994 -0.142233 -0.124071 0.238950 0.031513 -0.130480 0.061410 0.210615 0.208355 0.086271 0.214150 0.133695 -0.030645 0.191918 0.133534 -0.414389 -0.131543 -0.162827 -0.091481 0.151016 -0.012389 0.064120 0.071566 0.005723 -0.214609 0.098182 0.123224 0.181350 -0.085427 -0.020847 0.079211 0.092772 -0.046480 0.171505 0.030428 -0.039278 0.225561 -0.057076 -0.189025 -0.250910 0.035185 -0.042046 -0.111869 -0.002134 0.075025 0.063572 0.292440 0.161694 -0.291752 -0.230807 -0.114823 -0.235228 0.351597 -0.111190 -0.050757 -0.136199 0.254103 0.005607 0.123024 -0.089268 0.232234 -0.127987 -0.040702 0.033223 -0.015919 -0.032482 0.170264 0.112998 0.116065 0.033392 -0.191000 0.167565 -0.070497 0.122231 -0.330254 -0.161621 -0.446164 0.263798 0.137675 0.165323 -0.214469 -0.062281 -0.138905 -0.150129 0.077034 -0.040955 -0.266103 -0.209455 0.031402 -0.255497 -0.024592 -0.162759 -0.008105 0.214962 -0.156548 -0.307371 -0.133365 -0.222860 -0.093019 -0.104420 0.033481 0.337094 -0.084656 -0.294772 0.253845 0.351664 0.217735 -0.039463 -0.083750 -0.191232 0.051173 0.333642 0.212600 -0.003187 0.039386 -0.182008 0.160957 0.023499 0.271485 0.042716 -0.258155 0.280971 -0.102973 0.112777 0.081164 0.377551 -0.067759 -0.111686 0.080897 0.274041 -0.124856 -0.113917 0.024321 0.079719 -0.060345 -0.249170 -0.299782 -0.001868 0.232283 0.093342 0.135119 0.041336 0.029814 0.194088 -0.203332 0.183498 -0.226861 0.022048 -0.387149 -0.222500 -0.071100 0.276780 0.057795 0.276792 0.028548 0.116486 -0.030588 0.189438 -0.228239 0.124972 -0.103656 0.144021 -0.032928 0.017592 0.014575 0.127358 -0.164686 0.297541 -0.015847 -0.339176 -0.074668 0.361247 -0.049282 0.191397 -0.203672 -0.004956 -0.217155 0.084746 -0.061463 -0.075870 -0.126376 0.256829 -0.303088 -0.055385 0.225302 0.218500 0.142076 -0.065680 0.161308 0.016254 -0.040083 0.021353 -0.053441 0.271626 0.181551 0.010786 0.067476 -0.025360 -0.035187 -0.030464 0.086535 -0.032391 -0.033806 0.113595 0.013855 0.046110 0.192978 -0.011909 0.020369 0.070454 -0.006209 -0.022761 0.019759 -0.086417 -0.113456 -0.127994 0.087784 0.054021 -0.130249 0.084538 0.189942 -0.104220 -0.048491 -0.041223 0.292736 0.324016 -0.356435 -0.062766 0.045155 -0.136374 0.271622 -0.098987 0.011049 0.148958 -0.203484 -0.032878 0.179980 -0.090474 0.124240 0.154483 0.009456 -0.403942 0.234931 0.034820 0.148958 0.031921 0.080842 -0.204685 -0.172852 0.015362 0.133035
GAT 0.167428 0.079387 -0.084119 0.000975 -0.087450 0.026539 0.118841 -0.205023 -0.272535 0.001912 -0.057605 0.023241 -0.100424 -0.018987 -0.031200 0.086808 -0.209573 -0.080261 -0.053338 -0.113163 0.284510 -0.337033 0.054963 0.404602 -0.095737 -0.097434 -0.041847 -0.225691 0.072316 -0.271435 -0.114243 -0.040095 0.120949 -0.220287 -0.114878 0.019877 -0.176179 -0.013561 0.016459 -0.276475 -0.115734 -0.104545 -0.192094 0.159925 -0.010403 0.198407 -0.119839 0.130648 -0.051957 -0.118072 -0.007849 0.122052 -0.139320 -0.026670 -0.207879 -0.106127 0.169778 -0.024658 -0.123112 -0.143584 -0.244074 0.000397 0.262597 0.102601 0.176346 0.118195 -0.053029 0.214030 0.190334 -0.191351 0.022156 -0.066087 0.006736 -0.080024 0.066797 -0.033814 -0.136417 -0.265947 -0.101180 -0.057324 -0.084770 -0.097981 -0.023806 0.075387 -0.074811 -0.102998 -0.164784 0.044689 -0.195632 0.081217 0.196419 0.002378 0.003637 -0.180787 0.060373 0.106612 0.100770 0.121187 -0.151974 0.093070 -0.064171 -0.020938 -0.069195 -0.071508 -0.158787 0.033398 -0.243850 0.258517 -0.295052 -0.076380 -0.031640 -0.023561 -0.145502 -0.025663 0.106112 -0.058532 0.081571 0.193812 0.090576 -0.038373 -0.153750 0.069946 -0.157857 -0.192671 -0.016600 -0.001656 0.127597 0.004293 -0.149647 0.316685 -0.092904 -0.056936 0.064524 -0.034752 0.085538 0.111562 0.184399 0.054633 -0.156079 -0.011000 0.137907 -0.206281 -0.033075 -0.043141 -0.153618 0.129118 -0.149609 0.104948 -0.020664 -0.168353 -0.262189 -0.157285 0.026553 -0.176968 -0.042837 0.301315 -0.066061 0.054385 -0.224079 0.065311 -0.130060 -0.169694 0.062944 0.085932 0.238263 -0.168908 0.158125 0.058234 0.166438 -0.103334 -0.055408 -0.061607 -0.029888 -0.105700 0.022292 0.117485 0.348520 0.037188 0.110069 -0.217233 0.212813 -0.257755 -0.165882 -0.009709 0.223393 -0.031080 -0.118509 -0.122282 -0.004519 -0.047912 -0.217448 -0.146764 -0.135408 0.028035 0.031502 -0.036076 -0.069466 0.049718 -0.012303 -0.115230 -0.164438 0.004608 -0.224229 0.057175 -0.199356 0.121503 0.018227 0.026068 -0.074219 0.003124 -0.098544 -0.253498 0.064569 -0.050071 0.046146 -0.011868 -0.159170 0.153098 -0.179834 -0.163904 0.056986 -0.073240 -0.086998 0.132104 0.090554 0.083546 -0.101547 0.023623 0.162216 0.013320 -0.049595 0.221872 0.040803 -0.066014 0.049845 0.210264 0.222388 -0.064286 -0.116758 -0.093864 0.048731 0.258339 0.001119 -0.155781 0.083914 0.025069 -0.060503 0.005487 0.103937 0.106589 0.062623 0.051833 -0.087822 -0.139809 -0.033299 -0.157101 0.054202 -0.010528 0.028008 -0.007569 -0.081636 0.135431 0.108820 0.028751 0.122868 0.074371 -0.072798 -0.046776 0.077516 -0.070175 -0.012890 0.138065 -0.195500 -0.142497 0.027869 0.199138 0.048260 -0.142578 0.237224 -0.197602 -0.234097 -0.015969 -0.040768 0.095849 -0.203682 0.018590 -0.018332 0.050736 -0.051159 -0.108120 0.018101 -0.155530 -0.059094 0.199213 -0.295434 -0.261262 0.221074 0.110148 -0.015339 0.087366
CAT -0.148843 -0.008313 0.063517 0.108000 -0.199603 -0.150985 0.116709 0.003370 -0.171237 -0.054024 0.014827 0.163340 -0.016692 -0.067974 -0.040109 0.134566 0.105689 0.249424 -0.281881 0.037928 0.141949 -0.094926 -0.139840 -0.020960 0.039277 0.093968 -0.077043 0.091459 0.364352 -0.070874 0.030708 0.256824 -0.036338 -0.009482 0.074344 0.272838 0.159748 -0.023149 0.042623 0.022207 -0.046072 0.130029 0.284129 0.120646 0.132615 0.083696 -0.089399 0.028926 0.308102 0.179791 -0.105449 0.202315 0.037522 0.148687 -0.063250 -0.085181 0.047015 0.091474 0.196210 0.027958 0.169330 -0.140532 -0.033916 -0.152220 0.171060 0.161459 0.118931 -0.142914 0.117934 0.174086 0.247858 0.165367 -0.154038 -0.017124 -0.074258 -0.147952 0.259307 -0.103697 0.044304 0.207856 -0.089334 0.124618 0.076900 0.046083 0.113100 -0.021963 -0.155287 -0.223658 -0.100287 -0.018870 0.235620 -0.139839 -0.094960 -0.371051 0.042501 0.065161 0.067212 -0.087336 -0.181248 -0.013048 -0.111645 0.003867 0.006224 0.172412 -0.055254 0.239205 0.170996 -0.091392 -0.043708 -0.231746 -0.037873 -0.122873 -0.061332 0.071631 -0.213338 0.044289 0.252162 -0.099499 0.105557 0.191466 -0.047347 0.068598 -0.252851 -0.234822 0.111267 0.232430 -0.085297 0.132039 -0.106313 0.182762 -0.137148 -0.220149 0.016685 0.162470 -0.187706 0.073737 0.130159 0.061433 0.055225 0.109187 -0.137640 -0.321797 -0.061409 -0.042038 -0.006154 -0.088977 0.036309 0.012923 -0.038311 -0.110652 0.087155 -0.138135 0.170134 -0.077712 -0.065433 -0.092988 0.166553 0.120945 0.063471 -0.059532 -0.116058 0.020542 0.309593 0.051377 0.034621 -0.126811 0.004691 0.137252 0.001981 0.045390 0.064065 0.025119 -0.078389 0.038374 0.031106 -0.131393 -0.012502 0.208004 0.018233 0.208002 -0.153864 -0.134754 0.309810 0.123143 0.093524 -0.120748 -0.083004 0.133355 0.068434 0.247007 0.033728 0.039544 -0.168117 -0.035604 -0.078297 0.055593 -0.107345 0.081008 0.031269 0.147856 0.035885 -0.018276 0.223777 0.205122 0.007362 -0.299837 -0.233527 0.112192 0.192644 0.018163 0.067445 0.018063 -0.072151 -0.228815 0.027363 -0.089539 -0.047346 0.025507 -0.070145 0.142399 -0.132953 -0.032519 -0.112249 0.070615 -0.075848 -0.030760 -0.057954 0.296991 -0.100622 0.092641 0.148772 0.107314 -0.189778 0.081524 0.081664 0.068247 0.070018 0.165780 -0.190451 -0.146970 -0.211827 0.299147 -0.217560 0.146344 -0.150298 -0.053381 -0.027810 0.096569 0.201082 0.302723 -0.255138 0.000064 -0.306110 -0.170969 0.052494 -0.052605 0.257022 -0.268418 0.001084 -0.376206 -0.190880 0.184225 0.027579 -0.082572 0.019076 0.388653 -0.057272 0.064378 0.107923 -0.182910 -0.286615 -0.010630 0.275398 -0.164188 -0.006809 0.174600 0.036946 -0.134403 0.024438 -0.174824 -0.222797 0.344715 0.110451 -0.130363 -0.202635 -0.073407 -0.129709 -0.109470 -0.099907 0.025475 -0.203828 -0.220790 0.187296 -0.020370 -0.055227 -0.057509 -0.152523 0.030959 -0.112468 0.220834
AGT -0.248861 -0.080618 0.023816 -0.106789 -0.128377 -0.250145 0.062164 -0.011734 -0.007163 -0.067361 -0.144844 0.103342 -0.168835 -0.158004 0.073753 -0.152541 0.027299 -0.125461 0.043339 -0.190014 -0.366933 0.097614 -0.043028 -0.101026 0.007789 -0.070229 -0.015558 -0.010050 0.006202 0.276022 -0.054135 -0.171675 -0.214668 0.188463 -0.260649 -0.005983 0.119579 0.196333 -0.199440 -0.136735 0.049520 -0.214159 -0.246332 0.136410 -0.126794 0.003009 0.141231 -0.156281 0.000266 -0.313993 0.128142 0.098191 0.388851 -0.009984 -0.014270 -0.210349 -0.133236 0.066932 0.060418 0.074215 0.138295 0.008512 0.204686 0.260276 -0.016380 0.061887 -0.076259 0.079302 0.012985 -0.230117 0.235722 0.143071 -0.004149 -0.136229 0.245561 -0.029572 -0.132068 0.090404 -0.412504 0.105695 0.036140 -0.366887 -0.151355 -0.118915 0.014161 0.114086 0.122904 0.032662 0.108311 0.016785 -0.067483 -0.083152 0.079575 0.145278 0.052677 -0.058954 0.049698 0.015623 0.013160 0.043386 -0.133187 0.155698 -0.075118 0.107188 0.092183 0.274377 -0.043058 0.068373 -0.089920 0.084397 -0.042737 -0.299296 -0.113645 -0.069805 -0.025885 0.033351 -0.135047 0.055842 -0.020165 -0.133558 -0.024032 0.016237 -0.193479 -0.154609 0.019779 -0.090853 0.006460 0.115490 0.083702 -0.004747 -0.001099 0.149761 -0.069306 0.010954 -0.042562 -0.084143 -0.001796 -0.203419 -0.225364 -0.051339 -0.063449 0.270358 0.234774 0.291179 -0.193739 -0.209555 0.094967 -0.103167 0.136405 0.112606 0.020993 0.116822 -0.081483 -0.006142 0.063935 0.093192 -0.113224 -0.091934 -0.045880 0.072798 0.020775 -0.244028 -0.102043 0.026786 -0.414860 0.001624 0.060457 0.163733 -0.225290 0.113950 0.306465 0.012972 0.077899 0.220446 0.211653 0.189291 -0.095775 -0.008885 0.035134 -0.140597 -0.042383 -0.171689 -0.026352 0.039483 -0.058112 -0.025986 0.152153 0.127683 -0.070045 -0.077951 0.031659 -0.021664 -0.135956 -0.097373 -0.000642 0.015559 0.074972 0.146467 0.025201 0.139546 0.090975 -0.223440 0.213401 -0.075491 0.154726 0.038197 0.214213 0.096519 -0.066459 0.108456 0.174850 -0.035862 -0.176549 0.177897 -0.036949 -0.119067 -0.079462 0.017003 0.080913 0.037444 0.269060 -0.187221 0.181608 -0.250084 0.080402 -0.141014 -0.202533 0.008398 -0.076269 0.087546 -0.194598 -0.051390 0.075567 -0.157859 0.061069 0.202368 0.010795 0.026434 0.067786 0.001379 0.136674 -0.063255 0.034868 0.134068 -0.080721 0.055815 0.002483 -0.057024 -0.012435 -0.133533 0.284079 -0.034432 0.025542 0.081784 -0.340428 0.072115 0.134054 0.225106 -0.033524 0.031933 -0.008300 0.146402 -0.054904 -0.040244 -0.189301 -0.210960 0.042660 -0.064381 0.061434 -0.057386 0.028533 -0.089778 0.042110 0.264836 0.068573 0.215982 0.101288 0.055226 0.020558 0.046323 -0.240805 -0.225792 0.116069 0.014132 0.170961 -0.130354 -0.030008 0.184548 0.204660 -0.037524 0.052994 0.108924 -0.184311 0.026953 0.109750 0.137116 0.085870 0.134353 0.188349 0.053128
ATG -0.035971 -0.048692 -0.036289 -0.039028 -0.178869 0.071462 0.114542 -0.237127 -0.080316 -0.159563 -0.063954 0.013061 0.017051 0.058303 -0.111519 0.188453 0.117354 -0.018332 -0.095254 0.113385 0.112039 -0.387301 0.036778 0.192075 -0.155777 -0.088454 0.145592 -0.006959 0.163599 -0.076043 0.134722 0.186110 0.066802 -0.318058 0.027742 -0.001904 0.031517 -0.005516 0.042024 -0.112215 -0.001863 -0.140384 -0.010602 0.182289 -0.067615 0.052319 -0.200023 0.227217 0.218023 0.007538 0.049835 0.137404 0.001628 -0.047325 -0.122014 0.127958 -0.080203 0.052890 0.088500 0.021408 0.008150 0.229237 0.118594 0.076903 0.239429 0.156007 -0.124892 0.077412 0.245316 0.005056 0.151497 0.082868 -0.154405 -0.136097 0.128529 -0.056171 0.066582 -0.259180 -0.150919 0.078382 -0.179270 0.180471 0.018526 -0.054391 0.011378 0.025228 -0.020836 -0.000549 -0.265967 -0.073846 0.340727 -0.007571 -0.181430 -0.246903 -0.046218 0.153801 0.221054 0.137563 -0.237039 -0.020584 -0.104767 -0.002291 -0.180326 -0.115123 -0.193368 0.258643 0.066515 0.010532 -0.139870 -0.127534 -0.085100 -0.143088 -0.014924 -0.015109 -0.070530 -0.068884 0.289093 -0.000401 0.220400 -0.043309 0.113112 0.255690 -0.204362 -0.070937 -0.017844 -0.013580 0.072536 0.082727 -0.081440 0.253209 -0.034974 -0.040404 0.022609 0.149379 -0.138532 -0.015208 0.037470 0.178391 -0.157005 0.069907 -0.146599 -0.301075 0.054072 0.052361 -0.168448 -0.177515 -0.069579 0.038655 -0.064334 0.003825 -0.069635 -0.244804 -0.026045 0.084837 -0.031312 0.159473 -0.177317 0.297919 -0.203256 -0.121878 0.101618 0.141892 0.311205 0.169424 0.100565 -0.157873 0.188365 0.114572 0.179543 -0.055040 0.185038 -0.043048 0.136498 0.021497 0.088682 -0.250042 -0.038073 0.107823 -0.067881 -0.074995 -0.108200 -0.301826 0.176226 0.030753 0.360313 -0.073593 -0.208374 0.094725 0.019890 0.157176 0.137491 0.003687 -0.231320 -0.119829 -0.148241 0.037405 0.026974 -0.035910 -0.153240 0.118939 0.107613 0.026484 0.201245 0.334121 0.081331 -0.039995 0.034779 0.002081 0.087462 -0.020188 0.020936 -0.212242 -0.047559 -0.144440 0.043467 -0.074448 0.051307 0.165234 -0.135796 0.119331 0.113742 -0.013904 0.010466 -0.209751 -0.036111 0.005137 0.125753 0.081653 -0.019285 -0.214108 0.035464 -0.061478 -0.083292 -0.169375 0.226368 0.117384 0.024501 0.048906 -0.105881 -0.019158 -0.110494 0.325086 0.026821 0.151291 -0.077536 0.087414 -0.207432 0.105387 -0.010738 0.133905 -0.118831 -0.156639 -0.420647 -0.034757 0.044083 0.000573 -0.100083 -0.129859 0.004548 -0.315435 -0.206197 -0.007275 -0.099598 -0.157153 -0.048591 0.128058 -0.065158 0.147885 -0.014187 -0.306295 -0.038007 -0.033639 0.018425 -0.064901 -0.123934 0.280967 0.072898 -0.202167 -0.004107 0.043412 -0.143670 0.084593 0.258623 -0.133620 -0.130743 0.096532 -0.214248 -0.027606 0.092460 -0.063001 -0.027841 -0.007573 -0.074895 0.298290 -0.085974 -0.049992 0.167891 0.229804 -0.233375 0.167044
